{"learner":{"attributes":{"scikit_learn":"{\"_estimator_type\": \"regressor\"}"},"feature_names":["pm25_lagged","temperature_2m_mean","precipitation_sum","wind_speed_10m_max","wind_direction_10m_dominant"],"feature_types":["float","float","float","float","float"],"gradient_booster":{"model":{"gbtree_model_param":{"num_parallel_tree":"1","num_trees":"100"},"iteration_indptr":[0,1,2,3,4,5,6,7,8,9,10,11,12,13,14,15,16,17,18,19,20,21,22,23,24,25,26,27,28,29,30,31,32,33,34,35,36,37,38,39,40,41,42,43,44,45,46,47,48,49,50,51,52,53,54,55,56,57,58,59,60,61,62,63,64,65,66,67,68,69,70,71,72,73,74,75,76,77,78,79,80,81,82,83,84,85,86,87,88,89,90,91,92,93,94,95,96,97,98,99,100],"tree_info":[0,0,0,0,0,0,0,0,0,0,0,0,0,0,0,0,0,0,0,0,0,0,0,0,0,0,0,0,0,0,0,0,0,0,0,0,0,0,0,0,0,0,0,0,0,0,0,0,0,0,0,0,0,0,0,0,0,0,0,0,0,0,0,0,0,0,0,0,0,0,0,0,0,0,0,0,0,0,0,0,0,0,0,0,0,0,0,0,0,0,0,0,0,0,0,0,0,0,0,0],"trees":[{"base_weights":[-1.3430719E-6,-1.0750314E1,1.878597E1,-1.8152056E1,-2.912937E0,1.1046125E1,3.9615814E1,-2.4599894E1,-1.4457096E1,1.893735E0,-4.9326777E0,7.1330585E0,1.622593E1,3.1721718E1,5.9349777E1,-2.870348E1,-2.2301434E1,-1.7577644E1,-1.2775843E1,-1.7888783E0,4.7029943E0,-7.6919446E0,-1.4484035E0,9.573903E0,3.2708523E0,2.0451614E1,9.122939E0,4.0672928E1,2.3327377E1,5.7469803E1,4.0767975E1,-9.487984E0,-8.064371E0,-1.8191437E1,-2.3079098E1,8.3987427E-1,-1.7769087E1,-9.861885E0,-1.4289628E1,1.352682E0,-2.8215213E0,1.1763367E1,3.3432407E0,-8.853707E0,-5.5037093E0,-3.1458178E0,4.7581893E-1,1.4947548E1,8.714418E0,1.9879223E0,5.3049235E0,1.5788613E1,2.2798027E1,1.1430511E1,3.6978602E0,1.3245769E1,3.4002144E1,2.8169992E0,2.4150974E1,2.1514515E1,4.9296013E1,-5.81714E0,-3.6837127E0,-6.9419665E0,-1.0820252E0,-6.427002E-1,1.4679749E0,-3.3962023E0,-5.498513E0,-9.6126556E-1,-3.2084453E0,-3.5154595E0,-4.4271193E0,5.45051E-1,-2.5820253E0,-9.660499E-1,1.6466248E0,2.2024975E0,5.502415E0,1.4801685E0,2.4952789E-1,-1.6944997E0,-2.960509E0,-7.097332E-1,-1.898369E0,-7.4914306E-1,-1.7777927E0,4.0322503E-1,-1.4061226E0,4.9310346E0,-1.9980378E0,2.089971E0,3.3023617E0,8.0531305E-1,-1.2037972E0,1.3644323E0,3.1599545E0,6.8643045E0,3.6030684E0,8.119995E0,5.6540475E0,3.9928038E0,2.4964406E0,5.2769623E0,7.6073503E-1,1.1183746E1,6.733382E0,4.0769625E0,-2.5980377E0,7.589702E0,1.8023548E0,1.8244225E1,9.575452E0],"categories":[],"categories_nodes":[],"categories_segments":[],"categories_sizes":[],"default_left":[0,0,0,0,0,0,0,0,0,0,0,0,0,0,0,0,0,0,0,0,0,0,0,0,0,0,0,0,0,0,0,0,0,0,0,0,0,0,0,0,0,0,0,0,0,0,0,0,0,0,0,0,0,0,0,0,0,0,0,0,0,0,0,0,0,0,0,0,0,0,0,0,0,0,0,0,0,0,0,0,0,0,0,0,0,0,0,0,0,0,0,0,0,0,0,0,0,0,0,0,0,0,0,0,0,0,0,0,0,0,0,0,0],"id":0,"left_children":[1,3,5,7,9,11,13,15,17,19,21,23,25,27,29,31,33,35,37,39,41,43,45,47,49,51,53,55,57,59,-1,-1,-1,61,63,65,67,69,71,73,75,77,79,81,83,85,87,89,91,93,95,97,99,101,103,-1,105,107,109,-1,111,-1,-1,-1,-1,-1,-1,-1,-1,-1,-1,-1,-1,-1,-1,-1,-1,-1,-1,-1,-1,-1,-1,-1,-1,-1,-1,-1,-1,-1,-1,-1,-1,-1,-1,-1,-1,-1,-1,-1,-1,-1,-1,-1,-1,-1,-1,-1,-1,-1,-1,-1,-1],"loss_changes":[8.261982E5,1.5088975E5,2.3961862E5,3.1521531E4,1.2290255E4,2.1916562E4,6.0897312E4,3.9438125E3,4.250625E3,3.887944E3,8.554973E3,5.822883E3,1.3830422E4,2.0841688E4,8.59475E3,6.06875E1,5.901719E2,1.0585859E3,2.3204766E3,5.326066E2,2.0055498E3,1.2147461E3,1.2916467E3,1.624793E3,6.2097046E2,2.834914E3,2.1610322E3,1.7251562E3,2.4995938E3,9.622219E3,0E0,0E0,0E0,1.518086E2,2.2665625E2,5.883501E1,8.4922656E2,1.0415371E3,2.658047E2,2.0516843E2,4.2515472E2,8.542705E2,7.149774E2,9.947715E2,4.3762207E2,3.6391943E2,8.400927E2,1.7505918E3,1.2461543E3,6.376409E2,3.200791E2,2.4317754E3,2.7281953E3,6.077363E2,8.2714966E2,0E0,1.1327383E3,9.8318146E2,2.8890312E3,0E0,1.3070859E4,0E0,0E0,0E0,0E0,0E0,0E0,0E0,0E0,0E0,0E0,0E0,0E0,0E0,0E0,0E0,0E0,0E0,0E0,0E0,0E0,0E0,0E0,0E0,0E0,0E0,0E0,0E0,0E0,0E0,0E0,0E0,0E0,0E0,0E0,0E0,0E0,0E0,0E0,0E0,0E0,0E0,0E0,0E0,0E0,0E0,0E0,0E0,0E0,0E0,0E0,0E0,0E0],"parents":[2147483647,0,0,1,1,2,2,3,3,4,4,5,5,6,6,7,7,8,8,9,9,10,10,11,11,12,12,13,13,14,14,15,15,16,16,17,17,18,18,19,19,20,20,21,21,22,22,23,23,24,24,25,25,26,26,27,27,28,28,29,29,33,33,34,34,35,35,36,36,37,37,38,38,39,39,40,40,41,41,42,42,43,43,44,44,45,45,46,46,47,47,48,48,49,49,50,50,51,51,52,52,53,53,54,54,56,56,57,57,58,58,60,60],"right_children":[2,4,6,8,10,12,14,16,18,20,22,24,26,28,30,32,34,36,38,40,42,44,46,48,50,52,54,56,58,60,-1,-1,-1,62,64,66,68,70,72,74,76,78,80,82,84,86,88,90,92,94,96,98,100,102,104,-1,106,108,110,-1,112,-1,-1,-1,-1,-1,-1,-1,-1,-1,-1,-1,-1,-1,-1,-1,-1,-1,-1,-1,-1,-1,-1,-1,-1,-1,-1,-1,-1,-1,-1,-1,-1,-1,-1,-1,-1,-1,-1,-1,-1,-1,-1,-1,-1,-1,-1,-1,-1,-1,-1,-1,-1],"split_conditions":[6.1E1,4.7333332E1,8.1666664E1,3.7333332E1,1.7072504E1,6.8666664E1,1.03666664E2,3.1666666E1,4.1E1,5.3666668E1,5.5E1,2.1385939E1,1.964228E1,1.6641972E1,9.799999E0,2.7333334E1,1.624394E1,9.811668E-1,1.80036E1,6.049666E0,4.8225827E0,5.2666668E1,5.8333332E1,4.5499167E0,1.2458252E1,7.2E1,2.721038E1,1.3450708E1,1.9521421E1,1.2324414E1,4.0767975E1,-9.487984E0,-8.064371E0,3.6333332E1,2.2318666E1,3.9666668E1,1.2096214E1,4.7353334E0,1.7991086E2,3.572886E2,2.1574919E1,5.8666668E1,2.3390814E2,1.9917469E1,2.0929594E1,3.1104082E1,3.1973186E1,2.3999999E0,6.5E1,3.527449E1,3.0888754E1,1.1525623E1,1.7884033E2,2.2205919E2,2.7519999E0,1.3245769E1,1.7E0,8.8E1,8.400001E0,2.1514515E1,1.5194066E2,-5.81714E0,-3.6837127E0,-6.9419665E0,-1.0820252E0,-6.427002E-1,1.4679749E0,-3.3962023E0,-5.498513E0,-9.6126556E-1,-3.2084453E0,-3.5154595E0,-4.4271193E0,5.45051E-1,-2.5820253E0,-9.660499E-1,1.6466248E0,2.2024975E0,5.502415E0,1.4801685E0,2.4952789E-1,-1.6944997E0,-2.960509E0,-7.097332E-1,-1.898369E0,-7.4914306E-1,-1.7777927E0,4.0322503E-1,-1.4061226E0,4.9310346E0,-1.9980378E0,2.089971E0,3.3023617E0,8.0531305E-1,-1.2037972E0,1.3644323E0,3.1599545E0,6.8643045E0,3.6030684E0,8.119995E0,5.6540475E0,3.9928038E0,2.4964406E0,5.2769623E0,7.6073503E-1,1.1183746E1,6.733382E0,4.0769625E0,-2.5980377E0,7.589702E0,1.8023548E0,1.8244225E1,9.575452E0],"split_indices":[0,0,0,0,3,0,0,0,0,0,0,3,3,3,2,0,3,1,3,1,1,0,0,1,1,0,3,3,4,3,0,0,0,0,1,0,3,1,4,4,1,0,4,3,3,3,3,2,0,3,3,3,4,4,1,0,2,0,2,0,4,0,0,0,0,0,0,0,0,0,0,0,0,0,0,0,0,0,0,0,0,0,0,0,0,0,0,0,0,0,0,0,0,0,0,0,0,0,0,0,0,0,0,0,0,0,0,0,0,0,0,0,0],"split_type":[0,0,0,0,0,0,0,0,0,0,0,0,0,0,0,0,0,0,0,0,0,0,0,0,0,0,0,0,0,0,0,0,0,0,0,0,0,0,0,0,0,0,0,0,0,0,0,0,0,0,0,0,0,0,0,0,0,0,0,0,0,0,0,0,0,0,0,0,0,0,0,0,0,0,0,0,0,0,0,0,0,0,0,0,0,0,0,0,0,0,0,0,0,0,0,0,0,0,0,0,0,0,0,0,0,0,0,0,0,0,0,0,0],"sum_hessian":[4.089E3,2.601E3,1.488E3,1.337E3,1.264E3,1.086E3,4.02E2,4.85E2,8.52E2,3.74E2,8.9E2,6.2E2,4.66E2,2.89E2,1.13E2,1.7E2,3.15E2,2.95E2,5.57E2,1.62E2,2.12E2,4.96E2,3.94E2,3.79E2,2.41E2,2.91E2,1.75E2,1.38E2,1.51E2,1.12E2,1E0,5.9E1,1.11E2,5.4E1,2.61E2,3E0,2.92E2,1.93E2,3.64E2,4E1,1.22E2,3.3E1,1.79E2,3.22E2,1.74E2,2.09E2,1.85E2,5E1,3.29E2,1.49E2,9.2E1,1E2,1.91E2,1.22E2,5.3E1,8.7E1,5.1E1,6E0,1.45E2,3.8E1,7.4E1,4.3E1,1.1E1,2.6E2,1E0,2E0,1E0,2.5E1,2.67E2,2.2E1,1.71E2,6E1,3.04E2,3.9E1,1E0,1.17E2,5E0,2.1E1,1.2E1,1.09E2,7E1,7.9E1,2.43E2,3.7E1,1.37E2,1.71E2,3.8E1,1.59E2,2.6E1,4.7E1,3E0,1.89E2,1.4E2,1.34E2,1.5E1,8.2E1,1E1,3.3E1,6.7E1,8.9E1,1.02E2,7.4E1,4.8E1,3E0,5E1,3.8E1,1.3E1,3E0,3E0,1.36E2,9E0,4.3E1,3.1E1],"tree_param":{"num_deleted":"0","num_feature":"5","num_nodes":"113","size_leaf_vector":"1"}},{"base_weights":[3.0166121E-2,-7.239098E0,1.3867026E1,-1.2306491E1,-1.2290845E0,8.707848E0,2.9937597E1,-1.6377308E1,-9.116408E0,2.1410463E0,-2.6848996E0,1.2580312E1,5.390759E0,2.2842882E1,4.119059E1,-1.959838E1,-1.4682166E1,-6.304099E0,-1.0010344E1,4.5690067E-2,4.9968457E0,-4.384268E0,-2.1776597E-1,9.131758E0,1.8507074E1,3.5642738E0,7.816572E0,2.9163795E1,1.715329E1,3.9730377E1,3.465278E1,-2.1897352E1,-1.8123625E1,-1.2531468E1,-1.5661059E1,7.613166E-1,-7.0933747E0,-7.841488E0,-1.0663221E1,-3.6078057E0,6.808323E-1,9.6714945E0,3.9072206E0,-2.3907878E0,-4.8730903E0,2.0821438E0,-1.0188159E0,1.4352346E1,7.8369446E0,1.6229816E1,2.4605917E1,4.889702E0,2.0820665E0,9.286301E0,2.6379204E0,3.061314E1,2.037207E1,2.9796566E1,1.5085266E1,5.1296913E1,3.3627064E1,-1.4588276E0,-6.615428E0,-2.9306254E0,-5.490037E0,-4.522595E0,-3.3370001E0,-4.273182E0,-4.900539E0,1.6746246E0,-6.143359E-1,-2.8999207E0,-1.6104352E0,-3.5622284E0,-1.8668996E0,-3.8155026E0,-3.0560243E0,6.978613E-1,-1.4378557E0,-8.7335473E-1,3.8710457E-1,5.589063E-1,3.1502457E0,1.6985402E0,1.8547957E-1,5.822244E-1,-1.1467006E0,-2.068856E0,-1.1630781E0,-2.8907403E-1,1.1495007E0,-2.7423584E0,-2.3755598E-1,4.657689E0,-4.051893E0,-3.4332435E0,2.410852E0,5.7090607E0,3.9436195E0,2.8934975E0,7.7319994E0,3.7610033E-1,1.6735312E0,1.0058345E0,-4.5220637E-1,2.6189244E0,7.5253468E0,4.089646E0,5.275185E-1,9.332673E0,4.9972186E0,8.6204076E-1,8.22711E0,5.8339086E0,1.0926661E1,5.3660216E0,2.8824048E0,1.61932E1,7.731435E0,1.2490193E1,6.893376E0],"categories":[],"categories_nodes":[],"categories_segments":[],"categories_sizes":[],"default_left":[0,0,0,0,0,0,0,0,0,0,0,0,0,0,0,0,0,0,0,0,0,0,0,0,0,0,0,0,0,0,0,0,0,0,0,0,0,0,0,0,0,0,0,0,0,0,0,0,0,0,0,0,0,0,0,0,0,0,0,0,0,0,0,0,0,0,0,0,0,0,0,0,0,0,0,0,0,0,0,0,0,0,0,0,0,0,0,0,0,0,0,0,0,0,0,0,0,0,0,0,0,0,0,0,0,0,0,0,0,0,0,0,0,0,0,0,0,0,0,0,0],"id":1,"left_children":[1,3,5,7,9,11,13,15,17,19,21,23,25,27,29,31,33,35,37,39,41,43,45,47,49,51,53,55,57,59,-1,61,63,65,67,69,71,73,75,77,79,81,83,85,87,89,91,93,95,97,99,101,103,105,107,109,111,113,115,117,119,-1,-1,-1,-1,-1,-1,-1,-1,-1,-1,-1,-1,-1,-1,-1,-1,-1,-1,-1,-1,-1,-1,-1,-1,-1,-1,-1,-1,-1,-1,-1,-1,-1,-1,-1,-1,-1,-1,-1,-1,-1,-1,-1,-1,-1,-1,-1,-1,-1,-1,-1,-1,-1,-1,-1,-1,-1,-1,-1,-1],"loss_changes":[4.114881E5,8.166545E4,1.1656078E5,1.8745688E4,6.03067E3,1.3650977E4,2.6363281E4,3.1958438E3,1.9933672E3,2.2198047E3,3.596268E3,9.886875E3,2.528662E3,7.1239844E3,9.6270625E3,3.388672E2,6.921875E2,1.1207134E3,7.928789E2,5.013616E2,7.619092E2,4.83375E2,6.4878357E2,2.0033008E3,2.1006055E3,6.400884E2,1.8554727E3,6.378281E2,2.5312227E3,7.4522812E3,0E0,1.02734375E2,2.4730469E1,3.230586E2,4.0523438E1,2.9581345E2,7.471533E2,8.855381E2,3.3361328E2,2.3617569E2,4.0660446E2,1.682334E2,7.409241E2,6.398996E2,7.935049E2,4.8859207E2,4.739088E2,2.203544E3,1.0638252E3,9.0727344E2,5.722988E2,4.2874805E2,7.257124E2,1.4691855E3,5.175329E2,5.60625E1,2.0188906E3,3.2037012E2,1.3625801E3,1.5509453E3,6.5468047E3,0E0,0E0,0E0,0E0,0E0,0E0,0E0,0E0,0E0,0E0,0E0,0E0,0E0,0E0,0E0,0E0,0E0,0E0,0E0,0E0,0E0,0E0,0E0,0E0,0E0,0E0,0E0,0E0,0E0,0E0,0E0,0E0,0E0,0E0,0E0,0E0,0E0,0E0,0E0,0E0,0E0,0E0,0E0,0E0,0E0,0E0,0E0,0E0,0E0,0E0,0E0,0E0,0E0,0E0,0E0,0E0,0E0,0E0,0E0,0E0],"parents":[2147483647,0,0,1,1,2,2,3,3,4,4,5,5,6,6,7,7,8,8,9,9,10,10,11,11,12,12,13,13,14,14,15,15,16,16,17,17,18,18,19,19,20,20,21,21,22,22,23,23,24,24,25,25,26,26,27,27,28,28,29,29,31,31,32,32,33,33,34,34,35,35,36,36,37,37,38,38,39,39,40,40,41,41,42,42,43,43,44,44,45,45,46,46,47,47,48,48,49,49,50,50,51,51,52,52,53,53,54,54,55,55,56,56,57,57,58,58,59,59,60,60],"right_children":[2,4,6,8,10,12,14,16,18,20,22,24,26,28,30,32,34,36,38,40,42,44,46,48,50,52,54,56,58,60,-1,62,64,66,68,70,72,74,76,78,80,82,84,86,88,90,92,94,96,98,100,102,104,106,108,110,112,114,116,118,120,-1,-1,-1,-1,-1,-1,-1,-1,-1,-1,-1,-1,-1,-1,-1,-1,-1,-1,-1,-1,-1,-1,-1,-1,-1,-1,-1,-1,-1,-1,-1,-1,-1,-1,-1,-1,-1,-1,-1,-1,-1,-1,-1,-1,-1,-1,-1,-1,-1,-1,-1,-1,-1,-1,-1,-1,-1,-1,-1,-1],"split_conditions":[6.1666668E1,4.8666668E1,8.4E1,3.9333332E1,1.7072504E1,1.7713316E1,1E2,3.2666668E1,1.6394829E1,5.6333332E1,5.6333332E1,7.2333336E1,6.9E1,1.6179985E1,9.799999E0,2.8666666E1,1.9083395E1,3.8184168E0,1.9353781E2,6.81985E1,5.1228337E0,1.964228E1,2.0447239E1,5.3749166E0,8.0333336E1,2.3358423E1,2.721038E1,1.5000001E0,3.7332504E0,1.2261157E1,3.465278E1,8.759178E0,1.2261157E1,3.5333332E1,5E-1,1.1298495E1,4.3666668E1,4.890268E1,4.1E1,5.2895007E0,4.9666668E1,5.0524208E1,2.4544354E2,6.787417E0,5.1666668E1,5.9E1,3.318288E1,2.4E0,5.5355177E0,1.8845227E2,4.469031E1,6.520159E1,2.4062584E2,2.3272837E1,2.7519999E0,2.3272837E1,8.897834E0,9E1,2.3452555E1,1.2158252E1,1.5194066E2,-1.4588276E0,-6.615428E0,-2.9306254E0,-5.490037E0,-4.522595E0,-3.3370001E0,-4.273182E0,-4.900539E0,1.6746246E0,-6.143359E-1,-2.8999207E0,-1.6104352E0,-3.5622284E0,-1.8668996E0,-3.8155026E0,-3.0560243E0,6.978613E-1,-1.4378557E0,-8.7335473E-1,3.8710457E-1,5.589063E-1,3.1502457E0,1.6985402E0,1.8547957E-1,5.822244E-1,-1.1467006E0,-2.068856E0,-1.1630781E0,-2.8907403E-1,1.1495007E0,-2.7423584E0,-2.3755598E-1,4.657689E0,-4.051893E0,-3.4332435E0,2.410852E0,5.7090607E0,3.9436195E0,2.8934975E0,7.7319994E0,3.7610033E-1,1.6735312E0,1.0058345E0,-4.5220637E-1,2.6189244E0,7.5253468E0,4.089646E0,5.275185E-1,9.332673E0,4.9972186E0,8.6204076E-1,8.22711E0,5.8339086E0,1.0926661E1,5.3660216E0,2.8824048E0,1.61932E1,7.731435E0,1.2490193E1,6.893376E0],"split_indices":[0,0,0,0,3,3,0,0,3,0,0,0,0,3,2,0,3,1,4,4,1,3,3,1,0,3,3,2,1,3,0,3,3,0,2,3,0,4,0,1,0,4,4,1,0,0,4,2,4,4,4,4,4,1,1,1,1,0,3,1,4,0,0,0,0,0,0,0,0,0,0,0,0,0,0,0,0,0,0,0,0,0,0,0,0,0,0,0,0,0,0,0,0,0,0,0,0,0,0,0,0,0,0,0,0,0,0,0,0,0,0,0,0,0,0,0,0,0,0,0,0],"split_type":[0,0,0,0,0,0,0,0,0,0,0,0,0,0,0,0,0,0,0,0,0,0,0,0,0,0,0,0,0,0,0,0,0,0,0,0,0,0,0,0,0,0,0,0,0,0,0,0,0,0,0,0,0,0,0,0,0,0,0,0,0,0,0,0,0,0,0,0,0,0,0,0,0,0,0,0,0,0,0,0,0,0,0,0,0,0,0,0,0,0,0,0,0,0,0,0,0,0,0,0,0,0,0,0,0,0,0,0,0,0,0,0,0,0,0,0,0,0,0,0,0],"sum_hessian":[4.089E3,2.681E3,1.408E3,1.454E3,1.227E3,1.067E3,3.41E2,6.37E2,8.17E2,3.7E2,8.57E2,4.91E2,5.76E2,2.11E2,1.3E2,2.16E2,4.21E2,1.99E2,6.18E2,2.14E2,1.56E2,5.07E2,3.5E2,3.12E2,1.79E2,3.3E2,2.46E2,9.8E1,1.13E2,1.29E2,1E0,7.9E1,1.37E2,1.36E2,2.85E2,2E1,1.79E2,1.46E2,4.72E2,3.1E1,1.83E2,2.8E1,1.28E2,1.01E2,4.06E2,9E1,2.6E2,6E1,2.52E2,1.33E2,4.6E1,1.73E2,1.57E2,1.91E2,5.5E1,8.2E1,1.6E1,1.4E1,9.9E1,4.2E1,8.7E1,1E0,7.8E1,4E0,1.33E2,4.5E1,9.1E1,9.9E1,1.86E2,7E0,1.3E1,7E1,1.09E2,4E1,1.06E2,8.4E1,3.88E2,5E0,2.6E1,2.6E1,1.57E2,3E0,2.5E1,8.3E1,4.5E1,2.5E1,7.6E1,1.32E2,2.74E2,3.3E1,5.7E1,6E0,2.54E2,5.8E1,2E0,2E0,2.5E2,6.7E1,6.6E1,4E0,4.2E1,2.8E1,1.45E2,1.16E2,4.1E1,1.86E2,5E0,3E0,5.2E1,7.8E1,4E0,5E0,1.1E1,7E0,7E0,6.4E1,3.5E1,3.7E1,5E0,4.8E1,3.9E1],"tree_param":{"num_deleted":"0","num_feature":"5","num_nodes":"121","size_leaf_vector":"1"}},{"base_weights":[4.8692703E-2,-4.3456974E0,1.1620023E1,-8.648413E0,-1.9957112E-1,8.5767975E0,2.6195843E1,-1.2113372E1,-6.759951E0,-1.7685326E0,2.232259E0,6.841488E0,1.3943701E1,2.3654299E1,4.9732376E1,-1.4536391E1,-1.1088253E1,-8.180674E0,-5.555493E0,4.367202E-1,-2.70115E0,4.0992627E0,9.243127E-1,1.2738328E1,5.7218776E0,2.1102987E1,1.1303814E1,2.8995148E1,1.8288273E1,5.592414E1,1.3215129E-1,-1.9290709E1,-1.3860231E1,-5.014872E0,-1.1263302E1,-8.2700205E0,1.085666E0,-3.8388264E0,-6.672787E0,3.7266064E0,-2.0885195E-1,-5.870569E0,-2.40798E0,8.431425E0,3.3089297E0,1.5259031E0,-2.8023121E0,1.4296783E1,9.32721E0,7.2925844E0,3.243512E0,8.82599E0,1.9058424E1,1.4262245E1,4.96627E0,2.0949137E1,1.0914654E1,2.929514E1,1.5363789E1,4.6561367E1,2.9454865E1,-7.3023505E0,7.361819E0,-5.9508247E0,-1.6665133E0,-2.4033487E0,-4.2358627E0,-2.2437112E0,-2.077011E-2,-3.3940954E0,-4.853836E-1,-6.8920505E-1,-2.5267289E0,-1.158543E0,1.7013761E0,4.5139122E-1,-1.2990048E0,-1.7958338E0,-2.6345484E0,1.6694506E0,-3.6789876E-1,1.1950249E-2,-2.4410915E0,-6.935756E-1,-2.4734683E0,8.454124E-3,-8.600858E-1,3.0508811E0,-1.4180508E0,9.0283746E-1,3.1258612E0,9.756584E-1,1.727111E-1,-1.6408335E0,7.619715E-1,4.6984205E0,3.15919E0,8.107579E-1,3.2207787E0,1.5526959E0,3.0437105E0,1.3673918E0,3.0775326E-1,6.1195884E0,2.3160613E0,1.4302874E-1,4.718956E0,3.6768427E-1,3.596797E0,7.2557793E0,1.15573235E-1,9.622978E0,1.4087037E0,5.3188124E0,1.4631574E0,1.4579325E1,2.7078118E0],"categories":[],"categories_nodes":[],"categories_segments":[],"categories_sizes":[],"default_left":[0,0,0,0,0,0,0,0,0,0,0,0,0,0,0,0,0,0,0,0,0,0,0,0,0,0,0,0,0,0,0,0,0,0,0,0,0,0,0,0,0,0,0,0,0,0,0,0,0,0,0,0,0,0,0,0,0,0,0,0,0,0,0,0,0,0,0,0,0,0,0,0,0,0,0,0,0,0,0,0,0,0,0,0,0,0,0,0,0,0,0,0,0,0,0,0,0,0,0,0,0,0,0,0,0,0,0,0,0,0,0,0,0,0,0,0,0],"id":2,"left_children":[1,3,5,7,9,11,13,15,17,19,21,23,25,27,29,31,33,35,37,39,41,43,45,47,49,51,53,55,57,59,61,63,65,67,69,71,73,75,77,79,81,83,85,87,89,91,93,95,97,99,101,-1,103,105,107,109,-1,111,113,115,-1,-1,-1,-1,-1,-1,-1,-1,-1,-1,-1,-1,-1,-1,-1,-1,-1,-1,-1,-1,-1,-1,-1,-1,-1,-1,-1,-1,-1,-1,-1,-1,-1,-1,-1,-1,-1,-1,-1,-1,-1,-1,-1,-1,-1,-1,-1,-1,-1,-1,-1,-1,-1,-1,-1,-1,-1],"loss_changes":[2.0802264E5,5.2892695E4,4.9721875E4,9.43882E3,5.7690894E3,8.593852E3,1.0428516E4,1.1105625E3,1.5699297E3,1.8912468E3,1.444282E3,4.5948438E3,4.0516875E3,4.5423984E3,5.5206445E3,2.1161328E2,3.305E2,3.6581055E2,9.602471E2,5.8271564E2,5.861133E2,8.075205E2,7.8894165E2,4.6205078E2,2.2964453E3,4.5957812E2,3.0790352E3,4.4087656E3,2.4791523E3,1.7590156E3,2.3892961E3,9.666992E0,9.012695E1,1.4572461E2,1.53125E2,3.693418E2,1.3533672E2,5.4456885E2,3.9638184E2,4.165326E2,4.5379517E2,4.3720557E2,6.6313257E2,8.9431177E2,4.1156323E2,4.9350464E2,7.120636E2,2.2052734E2,3.2561377E2,2.145998E3,6.745276E2,0E0,6.174883E2,2.2989102E3,1.430201E3,2.9193691E3,0E0,1.0809795E3,1.7492441E3,7.078926E2,0E0,0E0,0E0,0E0,0E0,0E0,0E0,0E0,0E0,0E0,0E0,0E0,0E0,0E0,0E0,0E0,0E0,0E0,0E0,0E0,0E0,0E0,0E0,0E0,0E0,0E0,0E0,0E0,0E0,0E0,0E0,0E0,0E0,0E0,0E0,0E0,0E0,0E0,0E0,0E0,0E0,0E0,0E0,0E0,0E0,0E0,0E0,0E0,0E0,0E0,0E0,0E0,0E0,0E0,0E0,0E0,0E0],"parents":[2147483647,0,0,1,1,2,2,3,3,4,4,5,5,6,6,7,7,8,8,9,9,10,10,11,11,12,12,13,13,14,14,15,15,16,16,17,17,18,18,19,19,20,20,21,21,22,22,23,23,24,24,25,25,26,26,27,27,28,28,29,29,30,30,31,31,32,32,33,33,34,34,35,35,36,36,37,37,38,38,39,39,40,40,41,41,42,42,43,43,44,44,45,45,46,46,47,47,48,48,49,49,50,50,52,52,53,53,54,54,55,55,57,57,58,58,59,59],"right_children":[2,4,6,8,10,12,14,16,18,20,22,24,26,28,30,32,34,36,38,40,42,44,46,48,50,52,54,56,58,60,62,64,66,68,70,72,74,76,78,80,82,84,86,88,90,92,94,96,98,100,102,-1,104,106,108,110,-1,112,114,116,-1,-1,-1,-1,-1,-1,-1,-1,-1,-1,-1,-1,-1,-1,-1,-1,-1,-1,-1,-1,-1,-1,-1,-1,-1,-1,-1,-1,-1,-1,-1,-1,-1,-1,-1,-1,-1,-1,-1,-1,-1,-1,-1,-1,-1,-1,-1,-1,-1,-1,-1,-1,-1,-1,-1,-1,-1],"split_conditions":[6.5E1,4.8666668E1,9.3666664E1,3.7666668E1,5.8666668E1,8.0666664E1,1.3433333E2,3.1E1,4.3E1,1.7072504E1,1.8723461E1,1.1525623E1,1.3450708E1,1.4257288E2,8.847584E0,2.3333334E1,1.0805998E1,2.1254086E1,1.894024E1,1.0805998E1,4.077768E1,4.8225827E0,3.1973186E1,1.0966583E1,2.109305E1,9.811668E-1,2.2327618E2,7.294498E1,1.097262E1,1E-1,9.399916E0,3.2E0,1.332E1,3.6333332E1,2.2318666E1,1.8624167E0,1.0805998E1,3.4978335E0,3.9999995E0,1.5287417E1,3.4757632E2,2.109305E1,1.4778671E2,3.1169342E2,8.1E0,1.9970512E2,1.1518666E1,1.08672905E1,1.2022834E1,7.2333336E1,2.2327618E2,8.82599E0,2.6035446E2,2.4381361E1,2.966119E2,6.253988E1,1.0914654E1,1.7037416E1,2.5443839E2,1.9803272E1,2.9454865E1,-7.3023505E0,7.361819E0,-5.9508247E0,-1.6665133E0,-2.4033487E0,-4.2358627E0,-2.2437112E0,-2.077011E-2,-3.3940954E0,-4.853836E-1,-6.8920505E-1,-2.5267289E0,-1.158543E0,1.7013761E0,4.5139122E-1,-1.2990048E0,-1.7958338E0,-2.6345484E0,1.6694506E0,-3.6789876E-1,1.1950249E-2,-2.4410915E0,-6.935756E-1,-2.4734683E0,8.454124E-3,-8.600858E-1,3.0508811E0,-1.4180508E0,9.0283746E-1,3.1258612E0,9.756584E-1,1.727111E-1,-1.6408335E0,7.619715E-1,4.6984205E0,3.15919E0,8.107579E-1,3.2207787E0,1.5526959E0,3.0437105E0,1.3673918E0,3.0775326E-1,6.1195884E0,2.3160613E0,1.4302874E-1,4.718956E0,3.6768427E-1,3.596797E0,7.2557793E0,1.15573235E-1,9.622978E0,1.4087037E0,5.3188124E0,1.4631574E0,1.4579325E1,2.7078118E0],"split_indices":[0,0,0,0,0,0,0,0,0,3,3,3,3,4,1,0,3,1,3,3,4,1,3,1,3,1,4,4,3,2,1,2,3,0,1,1,3,1,2,1,4,3,4,4,2,4,1,3,1,0,4,0,4,4,4,4,0,1,4,3,0,0,0,0,0,0,0,0,0,0,0,0,0,0,0,0,0,0,0,0,0,0,0,0,0,0,0,0,0,0,0,0,0,0,0,0,0,0,0,0,0,0,0,0,0,0,0,0,0,0,0,0,0,0,0,0,0],"split_type":[0,0,0,0,0,0,0,0,0,0,0,0,0,0,0,0,0,0,0,0,0,0,0,0,0,0,0,0,0,0,0,0,0,0,0,0,0,0,0,0,0,0,0,0,0,0,0,0,0,0,0,0,0,0,0,0,0,0,0,0,0,0,0,0,0,0,0,0,0,0,0,0,0,0,0,0,0,0,0,0,0,0,0,0,0,0,0,0,0,0,0,0,0,0,0,0,0,0,0,0,0,0,0,0,0,0,0,0,0,0,0,0,0,0,0,0,0],"sum_hessian":[4.089E3,2.964E3,1.125E3,1.454E3,1.51E3,9.32E2,1.93E2,5.11E2,9.43E2,9.18E2,5.92E2,7.06E2,2.26E2,1.76E2,1.7E1,1.48E2,3.63E2,4.3E2,5.13E2,2.73E2,6.45E2,2.43E2,3.49E2,1.11E2,5.95E2,5.9E1,1.67E2,8.6E1,9E1,1.5E1,2E0,1.5E1,1.33E2,1.1E1,3.52E2,4.26E2,4E0,2.04E2,3.09E2,4.4E1,2.29E2,5.3E1,5.92E2,3.6E1,2.07E2,3.01E2,4.8E1,7.4E1,3.7E1,3.63E2,2.32E2,9E0,5E1,1.13E2,5.4E1,4.3E1,4.3E1,1.7E1,7.3E1,1.4E1,1E0,1E0,1E0,1.4E1,1E0,7E0,1.26E2,7E0,4E0,3.5E2,2E0,1.1E1,4.15E2,2E0,2E0,1.7E1,1.87E2,2.36E2,7.3E1,3.2E1,1.2E1,2.23E2,6E0,2.2E1,3.1E1,9.4E1,4.98E2,3.2E1,4E0,2E2,7E0,1.06E2,1.95E2,3.2E1,1.6E1,5.2E1,2.2E1,7E0,3E1,2.1E2,1.53E2,1.45E2,8.7E1,4.4E1,6E0,1.1E1,1.02E2,3.6E1,1.8E1,3.7E1,6E0,1.5E1,2E0,5.9E1,1.4E1,1.3E1,1E0],"tree_param":{"num_deleted":"0","num_feature":"5","num_nodes":"117","size_leaf_vector":"1"}},{"base_weights":[5.8432963E-2,-3.0512855E0,8.246938E0,-6.2879934E0,-3.0100632E-1,6.0511847E0,1.8764416E1,-9.106506E0,-5.1639643E0,-1.7775103E0,1.2226034E0,8.543371E0,4.020593E0,1.7701735E1,6.481631E1,-2.5883906E0,-9.326151E0,-1.374323E0,-5.428397E0,-1.1080562E0,-3.517335E0,3.9365268E0,7.016834E-1,6.1654615E0,1.211607E1,3.7041626E0,1.7001987E1,2.0426483E1,8.918963E0,5.1533227E0,2.2490976E1,-7.0400724E0,-1.03710555E-1,-1.1192743E1,-8.729901E0,1.9346572E0,-4.448236E0,-6.5289745E0,-4.744071E0,-4.256624E0,-7.435832E-1,-1.0594856E0,-4.1917706E0,5.821115E0,-3.0798063E-1,1.3016095E0,-1.0085208E0,5.7740173E0,1.7431694E1,2.2419573E1,1.1311873E1,-2.694556E0,4.2305994E0,1.8287722E1,4.288376E-1,1.8544167E1,3.5503616E1,2.9750536E1,5.1448183E0,-2.454052E0,-3.7195075E-1,4.3839073E-1,-5.882952E-1,-3.393818E0,-1.3113385E-1,-2.1338074E0,-2.8017354E0,6.2211774E-2,1.7141839E0,3.0737183E0,-1.7060363E0,-1.9973129E0,2.024926E-1,-1.4397417E0,2.1570215E0,-4.999331E-1,-2.6317682E0,3.1977957E-1,-6.12365E-1,-1.6193718E0,1.3577762E-1,-1.1549742E0,-3.987911E0,3.0275323E0,9.9642825E-1,4.7413322E-1,-2.8308997E0,2.5875388E-2,6.4223623E-1,-1.2457166E0,-1.1960389E-1,2.6265607E0,1.2084842E0,6.7540774E0,2.01642E0,8.831017E0,4.8325653E0,3.961118E0,2.7752228E0,-2.3446114E0,3.6226466E-1,2.0480342E0,7.227696E-1,1.801912E0,6.104861E0,6.4825554E0,3.7823112E0,1.1101173E1,2.17492E0,-6.301575E-2,1.2533034E1,1.952525E0,-2.7286704E0],"categories":[],"categories_nodes":[],"categories_segments":[],"categories_sizes":[],"default_left":[0,0,0,0,0,0,0,0,0,0,0,0,0,0,0,0,0,0,0,0,0,0,0,0,0,0,0,0,0,0,0,0,0,0,0,0,0,0,0,0,0,0,0,0,0,0,0,0,0,0,0,0,0,0,0,0,0,0,0,0,0,0,0,0,0,0,0,0,0,0,0,0,0,0,0,0,0,0,0,0,0,0,0,0,0,0,0,0,0,0,0,0,0,0,0,0,0,0,0,0,0,0,0,0,0,0,0,0,0,0,0,0,0],"id":3,"left_children":[1,3,5,7,9,11,13,15,17,19,21,23,25,27,29,31,33,35,37,39,41,43,45,47,49,51,53,55,57,-1,-1,59,61,63,65,67,69,71,73,75,77,79,81,83,85,87,89,91,93,95,97,99,101,103,-1,105,107,109,111,-1,-1,-1,-1,-1,-1,-1,-1,-1,-1,-1,-1,-1,-1,-1,-1,-1,-1,-1,-1,-1,-1,-1,-1,-1,-1,-1,-1,-1,-1,-1,-1,-1,-1,-1,-1,-1,-1,-1,-1,-1,-1,-1,-1,-1,-1,-1,-1,-1,-1,-1,-1,-1,-1],"loss_changes":[1.0417269E5,2.6392096E4,2.5890055E4,4.267914E3,3.6105571E3,4.687203E3,8.346703E3,5.29916E2,9.7059375E2,9.453596E2,1.11409E3,3.4764395E3,2.0565996E3,4.3886094E3,6.47E2,1.5412393E2,3.1853516E2,6.6975446E2,6.5590234E2,6.7389996E2,3.7019067E2,1.0176852E3,6.825742E2,1.0151045E3,1.121873E3,1.712502E3,2.1412378E2,3.4566992E3,3.5421436E3,0E0,0E0,2.292218E1,3.193216E1,1.07328125E2,2.1732031E2,2.0770811E2,6.770392E2,3.2630176E2,4.064756E2,6.9890356E2,1.2466621E3,3.3044443E2,4.9952808E2,9.059082E2,7.044417E2,5.01607E2,3.3003052E2,1.2450059E3,2.8410596E2,1.2956055E1,4.861582E2,7.8873364E2,2.1918086E3,1.5631348E2,0E0,2.1106406E3,3.675703E2,2.5309697E3,8.553424E2,0E0,0E0,0E0,0E0,0E0,0E0,0E0,0E0,0E0,0E0,0E0,0E0,0E0,0E0,0E0,0E0,0E0,0E0,0E0,0E0,0E0,0E0,0E0,0E0,0E0,0E0,0E0,0E0,0E0,0E0,0E0,0E0,0E0,0E0,0E0,0E0,0E0,0E0,0E0,0E0,0E0,0E0,0E0,0E0,0E0,0E0,0E0,0E0,0E0,0E0,0E0,0E0,0E0,0E0],"parents":[2147483647,0,0,1,1,2,2,3,3,4,4,5,5,6,6,7,7,8,8,9,9,10,10,11,11,12,12,13,13,14,14,15,15,16,16,17,17,18,18,19,19,20,20,21,21,22,22,23,23,24,24,25,25,26,26,27,27,28,28,31,31,32,32,33,33,34,34,35,35,36,36,37,37,38,38,39,39,40,40,41,41,42,42,43,43,44,44,45,45,46,46,47,47,48,48,49,49,50,50,51,51,52,52,53,53,55,55,56,56,57,57,58,58],"right_children":[2,4,6,8,10,12,14,16,18,20,22,24,26,28,30,32,34,36,38,40,42,44,46,48,50,52,54,56,58,-1,-1,60,62,64,66,68,70,72,74,76,78,80,82,84,86,88,90,92,94,96,98,100,102,104,-1,106,108,110,112,-1,-1,-1,-1,-1,-1,-1,-1,-1,-1,-1,-1,-1,-1,-1,-1,-1,-1,-1,-1,-1,-1,-1,-1,-1,-1,-1,-1,-1,-1,-1,-1,-1,-1,-1,-1,-1,-1,-1,-1,-1,-1,-1,-1,-1,-1,-1,-1,-1,-1,-1,-1,-1,-1],"split_conditions":[6.5E1,4.7666668E1,9.3666664E1,3.5666668E1,5.6333332E1,1.6862455E1,3.33559E1,3.7332504E0,1.1525623E1,2.2000003E0,1.3358861E1,7.5666664E1,2.2901999E1,2.0393293E1,1E2,2E-1,2.9E1,1.8664697E2,4.0666668E1,4.7690323E1,1.4778671E2,2E-1,2.6518099E1,1.6641972E1,7.1841675E-1,3.507383E1,6.1E0,1.3433333E2,3.7332504E0,5.1533227E0,2.2490976E1,3.0333334E1,2.3853589E2,2.0974669E1,2.0902951E2,4.3666668E1,-7.125833E-1,3.4512897E2,2.3272837E1,2.1746502E1,2.244213E2,3.5E0,1.92E1,7.004082E0,6.4E1,6E1,6.593666E0,1.1525623E1,1.142396E2,9.021574E0,1.4778671E2,6.787417E0,1.9970512E2,5.6903385E1,4.288376E-1,1.7313225E2,2.64309E2,1E-1,2.996662E1,-2.454052E0,-3.7195075E-1,4.3839073E-1,-5.882952E-1,-3.393818E0,-1.3113385E-1,-2.1338074E0,-2.8017354E0,6.2211774E-2,1.7141839E0,3.0737183E0,-1.7060363E0,-1.9973129E0,2.024926E-1,-1.4397417E0,2.1570215E0,-4.999331E-1,-2.6317682E0,3.1977957E-1,-6.12365E-1,-1.6193718E0,1.3577762E-1,-1.1549742E0,-3.987911E0,3.0275323E0,9.9642825E-1,4.7413322E-1,-2.8308997E0,2.5875388E-2,6.4223623E-1,-1.2457166E0,-1.1960389E-1,2.6265607E0,1.2084842E0,6.7540774E0,2.01642E0,8.831017E0,4.8325653E0,3.961118E0,2.7752228E0,-2.3446114E0,3.6226466E-1,2.0480342E0,7.227696E-1,1.801912E0,6.104861E0,6.4825554E0,3.7823112E0,1.1101173E1,2.17492E0,-6.301575E-2,1.2533034E1,1.952525E0,-2.7286704E0],"split_indices":[0,0,0,0,0,3,3,1,3,2,3,0,1,3,0,2,0,4,0,4,4,2,3,3,1,4,2,0,1,0,0,0,4,1,4,0,1,4,1,3,4,2,2,1,0,0,1,3,4,3,4,1,4,4,0,4,4,2,3,0,0,0,0,0,0,0,0,0,0,0,0,0,0,0,0,0,0,0,0,0,0,0,0,0,0,0,0,0,0,0,0,0,0,0,0,0,0,0,0,0,0,0,0,0,0,0,0,0,0,0,0,0,0],"split_type":[0,0,0,0,0,0,0,0,0,0,0,0,0,0,0,0,0,0,0,0,0,0,0,0,0,0,0,0,0,0,0,0,0,0,0,0,0,0,0,0,0,0,0,0,0,0,0,0,0,0,0,0,0,0,0,0,0,0,0,0,0,0,0,0,0,0,0,0,0,0,0,0,0,0,0,0,0,0,0,0,0,0,0,0,0,0,0,0,0,0,0,0,0,0,0,0,0,0,0,0,0,0,0,0,0,0,0,0,0,0,0,0,0],"sum_hessian":[4.089E3,2.964E3,1.125E3,1.361E3,1.603E3,9.32E2,1.93E2,3.86E2,9.75E2,8.14E2,7.89E2,4.17E2,5.15E2,1.9E2,3E0,1.3E1,3.73E2,6.4E1,9.11E2,5.89E2,2.25E2,1.26E2,6.63E2,2.52E2,1.65E2,5.04E2,1.1E1,1.44E2,4.6E1,1E0,2E0,4E0,9E0,8.6E1,2.87E2,3.1E1,3.3E1,3.46E2,5.65E2,6E1,5.29E2,4.9E1,1.76E2,8.7E1,3.9E1,4.91E2,1.72E2,2.45E2,7E0,1E1,1.55E2,3.8E1,4.66E2,1E1,1E0,1.3E2,1.4E1,6E0,4E1,3E0,1E0,5E0,4E0,8.5E1,1E0,8.2E1,2.05E2,2.2E1,9E0,2E0,3.1E1,3.4E2,6E0,5.63E2,2E0,3.9E1,2.1E1,2.21E2,3.08E2,1.2E1,3.7E1,1.71E2,5E0,3.1E1,5.6E1,3.3E1,6E0,2.01E2,2.9E2,2.7E1,1.45E2,8.9E1,1.56E2,4E0,3E0,3E0,7E0,7.8E1,7.7E1,1.6E1,2.2E1,1.91E2,2.75E2,2E0,8E0,8.4E1,4.6E1,1.3E1,1E0,2E0,4E0,3.7E1,3E0],"tree_param":{"num_deleted":"0","num_feature":"5","num_nodes":"113","size_leaf_vector":"1"}},{"base_weights":[6.2066775E-2,-1.8315513E0,7.082982E0,-4.111458E0,4.0604073E-1,5.5651693E0,1.5591231E1,-5.751776E0,-3.0159054E0,-5.9049493E-1,1.3176862E0,7.536146E0,3.400304E0,1.4600241E1,2.1662987E1,-6.652498E0,-4.8128996E0,-1.6558862E0,-3.5686653E0,1.6359922E0,-9.518331E-1,2.5596008E0,6.3911635E-1,5.430149E0,1.0384044E1,4.005846E0,-2.2332318E0,2.8480577E1,1.2542105E1,-5.0622406E0,-7.302729E0,-3.378141E0,-5.442387E0,-4.263406E0,-6.5866995E-1,-2.1358962E0,-4.0908756E0,3.7030473E0,-2.4543637E-1,-6.374414E-1,-2.8955603E0,2.9265838E0,-3.3523874E0,1.4158068E0,-5.46461E-2,7.102284E0,3.8402278E0,3.2856383E0,1.1028956E1,4.692107E0,-2.9224217E-1,5.720663E0,-4.1021132E0,3.2117065E1,1.4056895E1,2.0549055E1,1.0534712E1,-1.5808843E0,9.5759815E-1,-1.7352926E0,-2.36288E0,3.1129462E-1,-1.1176211E0,-2.5450487E0,-1.4959157E0,-3.953881E-1,-1.8046465E0,6.375687E-2,-9.778001E-1,-7.957205E-2,-1.091147E0,-1.109312E0,-1.7717276E0,3.087921E-1,1.736432E0,-2.1156933E0,3.7080128E-2,-1.6717331E-1,-2.457005E0,-3.287941E-1,-1.2524884E0,7.97814E-1,2.3612275E0,-2.5502641E0,-2.0920184E-2,-3.6868295E-1,6.857006E-1,5.1647227E-2,-1.4806325E0,1.52784E0,3.293936E0,2.4867225E0,6.4205676E-1,5.526911E0,-1.837609E0,3.0991056E0,6.2244973E0,-1.4164783E-1,1.6406145E0,-2.0433898E0,7.7069336E-1,-1.9363897E-1,-2.6241531E0,1.0174916E1,1.848682E0,-1.248975E0,5.8958235E0,9.071793E-1,6.6451116E0,-2.3192816E0,3.3665495E0],"categories":[],"categories_nodes":[],"categories_segments":[],"categories_sizes":[],"default_left":[0,0,0,0,0,0,0,0,0,0,0,0,0,0,0,0,0,0,0,0,0,0,0,0,0,0,0,0,0,0,0,0,0,0,0,0,0,0,0,0,0,0,0,0,0,0,0,0,0,0,0,0,0,0,0,0,0,0,0,0,0,0,0,0,0,0,0,0,0,0,0,0,0,0,0,0,0,0,0,0,0,0,0,0,0,0,0,0,0,0,0,0,0,0,0,0,0,0,0,0,0,0,0,0,0,0,0,0,0,0,0],"id":4,"left_children":[1,3,5,7,9,11,13,15,17,19,21,23,25,27,-1,29,31,33,35,37,39,41,43,45,47,49,51,53,55,57,59,61,63,65,67,69,71,73,75,77,79,81,83,85,87,89,91,93,95,97,99,-1,101,103,105,107,109,-1,-1,-1,-1,-1,-1,-1,-1,-1,-1,-1,-1,-1,-1,-1,-1,-1,-1,-1,-1,-1,-1,-1,-1,-1,-1,-1,-1,-1,-1,-1,-1,-1,-1,-1,-1,-1,-1,-1,-1,-1,-1,-1,-1,-1,-1,-1,-1,-1,-1,-1,-1,-1,-1],"loss_changes":[5.4389246E4,1.6438703E4,1.1135434E4,2.850754E3,1.478887E3,3.1276133E3,6.2959414E3,5.0751758E2,7.150322E2,6.274697E2,7.146809E2,2.258713E3,1.2165615E3,3.356584E3,0E0,2.970254E2,2.6701465E2,7.226647E2,5.00792E2,4.248116E2,4.0758575E2,6.606908E2,2.9697745E2,5.6824365E2,7.099512E2,9.452466E2,1.4716117E3,3.877588E2,1.6319277E3,1.828562E2,1.521289E2,1.5567615E2,2.6000977E2,3.8944287E2,4.606256E2,5.1577014E2,3.335127E2,2.8393744E2,1.4656693E2,3.4552728E2,2.0954602E2,3.5294043E2,3.0362012E2,6.0095636E2,3.240883E2,7.855947E2,8.671554E2,2.2497185E3,7.973711E2,1.1095098E3,8.568585E2,0E0,5.2421387E2,3.5140918E2,5.916051E2,5.5041113E2,1.2665195E3,0E0,0E0,0E0,0E0,0E0,0E0,0E0,0E0,0E0,0E0,0E0,0E0,0E0,0E0,0E0,0E0,0E0,0E0,0E0,0E0,0E0,0E0,0E0,0E0,0E0,0E0,0E0,0E0,0E0,0E0,0E0,0E0,0E0,0E0,0E0,0E0,0E0,0E0,0E0,0E0,0E0,0E0,0E0,0E0,0E0,0E0,0E0,0E0,0E0,0E0,0E0,0E0,0E0,0E0],"parents":[2147483647,0,0,1,1,2,2,3,3,4,4,5,5,6,6,7,7,8,8,9,9,10,10,11,11,12,12,13,13,15,15,16,16,17,17,18,18,19,19,20,20,21,21,22,22,23,23,24,24,25,25,26,26,27,27,28,28,29,29,30,30,31,31,32,32,33,33,34,34,35,35,36,36,37,37,38,38,39,39,40,40,41,41,42,42,43,43,44,44,45,45,46,46,47,47,48,48,49,49,50,50,52,52,53,53,54,54,55,55,56,56],"right_children":[2,4,6,8,10,12,14,16,18,20,22,24,26,28,-1,30,32,34,36,38,40,42,44,46,48,50,52,54,56,58,60,62,64,66,68,70,72,74,76,78,80,82,84,86,88,90,92,94,96,98,100,-1,102,104,106,108,110,-1,-1,-1,-1,-1,-1,-1,-1,-1,-1,-1,-1,-1,-1,-1,-1,-1,-1,-1,-1,-1,-1,-1,-1,-1,-1,-1,-1,-1,-1,-1,-1,-1,-1,-1,-1,-1,-1,-1,-1,-1,-1,-1,-1,-1,-1,-1,-1,-1,-1,-1,-1,-1,-1],"split_conditions":[6.8666664E1,5.0333332E1,1E2,3.9333332E1,5.8666668E1,1.7713316E1,9.799999E0,3.4666668E1,1.8845227E2,1.3358861E1,1.6981165E1,8.0333336E1,3.054701E1,9.793059E0,2.1662987E1,1E-1,1.9022177E1,4.7690323E1,7.8395E0,1.0091584E1,3.269664E1,3.3484387E2,2.1653348E2,1.8845227E2,2.4381361E1,2.694667E2,-3.0424997E-1,1E-1,3.1853335E0,3.417157E1,2.0823734E2,4.5499167E0,2.0447239E1,1.9521421E1,2.1999998E0,2.1611998E1,4.7E0,5.4333332E1,1.03186655E1,3.5228586E2,1.8000002E0,2.0974669E1,3.416517E2,5.6903385E1,9.799999E0,1.08610214E2,1.0805998E1,1.436463E1,1.7072504E1,4.6144554E1,1.894024E1,5.720663E0,3.456E1,2.721084E2,7.004082E0,9.9571085E0,4.3705E0,-1.5808843E0,9.5759815E-1,-1.7352926E0,-2.36288E0,3.1129462E-1,-1.1176211E0,-2.5450487E0,-1.4959157E0,-3.953881E-1,-1.8046465E0,6.375687E-2,-9.778001E-1,-7.957205E-2,-1.091147E0,-1.109312E0,-1.7717276E0,3.087921E-1,1.736432E0,-2.1156933E0,3.7080128E-2,-1.6717331E-1,-2.457005E0,-3.287941E-1,-1.2524884E0,7.97814E-1,2.3612275E0,-2.5502641E0,-2.0920184E-2,-3.6868295E-1,6.857006E-1,5.1647227E-2,-1.4806325E0,1.52784E0,3.293936E0,2.4867225E0,6.4205676E-1,5.526911E0,-1.837609E0,3.0991056E0,6.2244973E0,-1.4164783E-1,1.6406145E0,-2.0433898E0,7.7069336E-1,-1.9363897E-1,-2.6241531E0,1.0174916E1,1.848682E0,-1.248975E0,5.8958235E0,9.071793E-1,6.6451116E0,-2.3192816E0,3.3665495E0],"split_indices":[0,0,0,0,0,3,2,0,4,3,3,0,3,3,0,2,3,4,1,1,3,4,4,4,4,4,1,2,1,3,4,1,3,4,2,3,2,0,1,4,2,1,4,4,2,4,3,4,3,4,3,0,3,4,1,3,1,0,0,0,0,0,0,0,0,0,0,0,0,0,0,0,0,0,0,0,0,0,0,0,0,0,0,0,0,0,0,0,0,0,0,0,0,0,0,0,0,0,0,0,0,0,0,0,0,0,0,0,0,0,0],"split_type":[0,0,0,0,0,0,0,0,0,0,0,0,0,0,0,0,0,0,0,0,0,0,0,0,0,0,0,0,0,0,0,0,0,0,0,0,0,0,0,0,0,0,0,0,0,0,0,0,0,0,0,0,0,0,0,0,0,0,0,0,0,0,0,0,0,0,0,0,0,0,0,0,0,0,0,0,0,0,0,0,0,0,0,0,0,0,0,0,0,0,0,0,0,0,0,0,0,0,0,0,0,0,0,0,0,0,0,0,0,0,0],"sum_hessian":[4.089E3,3.221E3,8.68E2,1.595E3,1.626E3,7.38E2,1.3E2,6.37E2,9.58E2,7.77E2,8.49E2,3.85E2,3.53E2,1.29E2,1E0,3.22E2,3.15E2,2.78E2,6.8E2,1.08E2,6.69E2,2.99E2,5.5E2,2.23E2,1.62E2,3.19E2,3.4E1,1.5E1,1.14E2,9.6E1,2.26E2,9.8E1,2.17E2,7.6E1,2.02E2,1.83E2,4.97E2,5.1E1,5.7E1,5.77E2,9.2E1,2.82E2,1.7E1,2.59E2,2.91E2,1.07E2,1.16E2,1.4E1,1.48E2,2.75E2,4.4E1,2E0,3.2E1,1.1E1,4E0,2.1E1,9.3E1,9.4E1,2E0,6.5E1,1.61E2,7E0,9.1E1,2.6E1,1.91E2,2.9E1,4.7E1,1.52E2,5E1,8.2E1,1.01E2,4.11E2,8.6E1,2.3E1,2.8E1,2E0,5.5E1,5.72E2,5E0,3.9E1,5.3E1,2.69E2,1.3E1,6E0,1.1E1,6.4E1,1.95E2,2.79E2,1.2E1,7.2E1,3.5E1,3.1E1,8.5E1,5E0,9E0,1.4E2,8E0,3.6E1,2.39E2,1.3E1,3.1E1,1.9E1,1.3E1,1E1,1E0,1E0,3E0,2E0,1.9E1,3E0,9E1],"tree_param":{"num_deleted":"0","num_feature":"5","num_nodes":"111","size_leaf_vector":"1"}},{"base_weights":[5.5556078E-2,-1.0896623E0,5.913377E0,-2.7118888E0,6.829589E-1,5.738461E0,1.841354E1,-3.6692715E0,-1.6426617E0,1.8465626E0,1.2056425E-1,1.3899945E1,4.924951E0,-5.215997E0,-3.3219147E0,-7.4454707E-1,-2.3561401E0,1.5185997E0,7.9365845E0,-1.512266E0,4.0297484E-1,6.0620227E0,1.5535765E1,7.023335E0,2.740205E0,-8.886195E0,-4.806131E0,-1.2108799E0,-3.4540038E0,1.9015591E0,-1.0131704E0,-5.2303486E0,-2.0845559E0,1.9452227E0,-3.2510402E0,4.17125E0,1.5003781E1,-2.765427E0,4.9023757E0,2.6370242E0,6.423069E-3,1.0451458E1,3.4376042E0,6.4252186E0,1.7707052E1,6.2854156E0,1.7994337E1,4.320463E0,-8.236005E-1,-2.769845E0,-5.5303174E-1,-1.2337571E0,-1.8582984E0,1.9212285E0,-4.546927E-1,-1.0529398E0,2.6758063E-1,1.6283907E0,1.4163327E-1,-3.651251E-1,8.870289E-1,-9.316421E-1,-2.1014926E0,-6.532055E-1,9.317385E-1,1.2512062E0,3.930437E-1,-1.265469E0,2.0975451E0,2.4812944E0,-3.9090133E-1,1.1277573E0,5.3038487E0,-4.374026E-1,-2.8600159E0,9.7206247E-1,7.2178097E0,1.1760463E0,3.4265253E-1,1.4940974E-1,-3.4967527E-1,4.404482E0,-3.358475E-1,1.8703842E0,-1.2703857E0,-9.615982E-1,4.4954686E0,7.778189E0,4.529594E0,4.9697515E-1,2.1299942E0,2.6303077E0,6.4735055E0,1.1910412E0,6.358368E0,2.2577713E0,-5.7607156E-1],"categories":[],"categories_nodes":[],"categories_segments":[],"categories_sizes":[],"default_left":[0,0,0,0,0,0,0,0,0,0,0,0,0,0,0,0,0,0,0,0,0,0,0,0,0,0,0,0,0,0,0,0,0,0,0,0,0,0,0,0,0,0,0,0,0,0,0,0,0,0,0,0,0,0,0,0,0,0,0,0,0,0,0,0,0,0,0,0,0,0,0,0,0,0,0,0,0,0,0,0,0,0,0,0,0,0,0,0,0,0,0,0,0,0,0,0,0],"id":5,"left_children":[1,3,5,7,9,11,-1,13,15,17,19,21,23,25,27,29,31,33,35,37,39,41,43,45,47,49,51,53,55,57,59,61,63,65,67,69,71,73,75,77,79,81,83,85,87,89,91,93,95,-1,-1,-1,-1,-1,-1,-1,-1,-1,-1,-1,-1,-1,-1,-1,-1,-1,-1,-1,-1,-1,-1,-1,-1,-1,-1,-1,-1,-1,-1,-1,-1,-1,-1,-1,-1,-1,-1,-1,-1,-1,-1,-1,-1,-1,-1,-1,-1],"loss_changes":[2.7444145E4,9.842132E3,6.1382207E3,1.823252E3,1.0703832E3,4.3666953E3,0E0,4.8877637E2,5.4035034E2,1.0525088E3,5.0969534E2,6.751074E2,2.7726748E3,2.1452539E2,2.1108691E2,2.6918958E2,3.5675513E2,1.0379868E3,6.5589526E2,1.3238455E3,8.345161E2,1.0230859E2,8.5552734E2,2.3965674E3,1.6930784E3,2.2038574E1,1.2473242E2,1.1878194E2,1.7917285E2,1.738661E2,2.8045502E2,1.2908057E2,2.1483215E2,6.5315295E2,4.4557797E2,4.3719348E2,2.0432495E2,1.1983523E3,7.8177997E2,2.6789062E2,4.6209253E2,2.122232E2,2.1953476E2,9.5480945E2,4.4476074E2,1.0892197E3,4.391079E2,1.1454333E3,8.659951E2,0E0,0E0,0E0,0E0,0E0,0E0,0E0,0E0,0E0,0E0,0E0,0E0,0E0,0E0,0E0,0E0,0E0,0E0,0E0,0E0,0E0,0E0,0E0,0E0,0E0,0E0,0E0,0E0,0E0,0E0,0E0,0E0,0E0,0E0,0E0,0E0,0E0,0E0,0E0,0E0,0E0,0E0,0E0,0E0,0E0,0E0,0E0,0E0],"parents":[2147483647,0,0,1,1,2,2,3,3,4,4,5,5,7,7,8,8,9,9,10,10,11,11,12,12,13,13,14,14,15,15,16,16,17,17,18,18,19,19,20,20,21,21,22,22,23,23,24,24,25,25,26,26,27,27,28,28,29,29,30,30,31,31,32,32,33,33,34,34,35,35,36,36,37,37,38,38,39,39,40,40,41,41,42,42,43,43,44,44,45,45,46,46,47,47,48,48],"right_children":[2,4,6,8,10,12,-1,14,16,18,20,22,24,26,28,30,32,34,36,38,40,42,44,46,48,50,52,54,56,58,60,62,64,66,68,70,72,74,76,78,80,82,84,86,88,90,92,94,96,-1,-1,-1,-1,-1,-1,-1,-1,-1,-1,-1,-1,-1,-1,-1,-1,-1,-1,-1,-1,-1,-1,-1,-1,-1,-1,-1,-1,-1,-1,-1,-1,-1,-1,-1,-1,-1,-1,-1,-1,-1,-1,-1,-1,-1,-1,-1,-1],"split_conditions":[7.3E1,5.2666668E1,4.1399998E1,4.3E1,1.650709E1,2.0499165E0,1.841354E1,3.1666666E1,1.9803272E1,1.6179985E1,6.81985E1,7.6666664E1,1.7884033E2,2.3333334E1,4.2415843E0,3.4978335E0,2.0767975E1,3.9999995E0,6.3333332E1,3.2E0,1.6944142E2,-1.923E0,-7.125833E-1,1.26E2,2.199538E1,3.2E0,1.8000002E0,-1.923E0,3.5228586E2,1.1298495E1,2.0974669E1,1.390175E1,1.969367E1,5.2895007E0,1.92E1,1.5552002E1,4.1103334E0,6.7E1,6.6333336E1,2.0929594E1,2.3999999E0,2.952742E2,1.5683776E1,1.04774605E2,-3.0424997E-1,2.8706797E1,6.81985E1,1.3433333E2,4.8225827E0,-2.769845E0,-5.5303174E-1,-1.2337571E0,-1.8582984E0,1.9212285E0,-4.546927E-1,-1.0529398E0,2.6758063E-1,1.6283907E0,1.4163327E-1,-3.651251E-1,8.870289E-1,-9.316421E-1,-2.1014926E0,-6.532055E-1,9.317385E-1,1.2512062E0,3.930437E-1,-1.265469E0,2.0975451E0,2.4812944E0,-3.9090133E-1,1.1277573E0,5.3038487E0,-4.374026E-1,-2.8600159E0,9.7206247E-1,7.2178097E0,1.1760463E0,3.4265253E-1,1.4940974E-1,-3.4967527E-1,4.404482E0,-3.358475E-1,1.8703842E0,-1.2703857E0,-9.615982E-1,4.4954686E0,7.778189E0,4.529594E0,4.9697515E-1,2.1299942E0,2.6303077E0,6.4735055E0,1.1910412E0,6.358368E0,2.2577713E0,-5.7607156E-1],"split_indices":[0,0,3,0,3,1,0,0,3,3,4,0,4,0,1,1,3,2,0,2,4,1,1,0,3,2,2,1,4,3,1,1,1,1,2,1,1,0,0,3,2,4,3,4,1,4,4,0,1,0,0,0,0,0,0,0,0,0,0,0,0,0,0,0,0,0,0,0,0,0,0,0,0,0,0,0,0,0,0,0,0,0,0,0,0,0,0,0,0,0,0,0,0,0,0,0,0],"split_type":[0,0,0,0,0,0,0,0,0,0,0,0,0,0,0,0,0,0,0,0,0,0,0,0,0,0,0,0,0,0,0,0,0,0,0,0,0,0,0,0,0,0,0,0,0,0,0,0,0,0,0,0,0,0,0,0,0,0,0,0,0,0,0,0,0,0,0,0,0,0,0,0,0,0,0,0,0,0,0,0,0,0,0,0,0,0,0,0,0,0,0,0,0,0,0,0,0],"sum_hessian":[4.089E3,3.421E3,6.68E2,1.786E3,1.635E3,6.67E2,1E0,9.41E2,8.45E2,5.32E2,1.103E3,5.9E1,6.08E2,1.7E2,7.71E2,3.75E2,4.7E2,5.06E2,2.6E1,1.62E2,9.41E2,1.1E1,4.8E1,3.09E2,2.99E2,1.5E1,1.55E2,4.6E1,7.25E2,3.4E1,3.41E2,3.9E1,4.31E2,4.65E2,4.1E1,1.8E1,8E0,1.36E2,2.6E1,1.41E2,8E2,3E0,8E0,1E1,3.8E1,2.91E2,1.8E1,2.07E2,9.2E1,1.4E1,1E0,1.06E2,4.9E1,1E0,4.5E1,7.16E2,9E0,9E0,2.5E1,3.25E2,1.6E1,1.9E1,2E1,4.24E2,7E0,1.02E2,3.63E2,3.8E1,3E0,1E1,8E0,2E0,6E0,1.15E2,2.1E1,2.5E1,1E0,7.5E1,6.6E1,5.64E2,2.36E2,2E0,1E0,6E0,2E0,5E0,5E0,7E0,3.1E1,4.4E1,2.47E2,6E0,1.2E1,2.04E2,3E0,1E1,8.2E1],"tree_param":{"num_deleted":"0","num_feature":"5","num_nodes":"97","size_leaf_vector":"1"}},{"base_weights":[5.6223713E-2,-9.285486E-1,3.7074091E0,-2.3469355E0,-4.230364E-2,3.591469E0,1.5651508E1,-1.9805859E0,-3.410733E0,-7.128234E-1,5.5845076E-1,2.2444224E0,6.45739E0,-2.9741838E0,-1.5870473E0,-6.074739E0,-2.991464E0,1.9239207E-1,-1.0983139E0,3.843147E0,4.3093678E-1,2.9744875E0,7.3334455E-2,1.440921E1,5.576288E0,-1.0334188E0,-3.3629408E0,2.4886172E0,-1.6294345E0,-4.349408E0,-7.934381E0,-3.8949144E0,-1.9538083E0,-1.2489322E0,5.647332E-1,-5.746731E-1,-2.4963543E0,1.0495275E0,5.19959E0,1.2326201E0,3.4201328E-2,4.8439775E0,2.2326045E0,5.245945E0,-9.535592E-1,1.5756959E1,-1.6250967E0,1.0748991E1,4.716284E0,4.4724306E-1,-6.3164234E-1,-8.3992386E-1,-1.3910632E0,-2.559748E-1,-6.286005E-1,1.2747688E0,-1.4724033E0,-3.745509E0,-1.0469449E0,9.9436545E-1,-1.2208023E0,-8.334133E-1,5.406957E-1,-1.0103312E0,5.0479347E-1,6.7520875E-1,-6.4868495E-2,-1.26484E-2,-5.377789E-1,-1.2607741E0,-5.293954E-1,-1.4036252E0,7.18241E-1,9.370075E-1,4.751408E0,-2.5118893E-1,7.191701E-1,-1.2802165E0,3.1559173E-2,2.0133345E0,4.8076043E-1,-2.9609134E0,7.252852E-1,7.817675E-1,7.121313E0,-2.6113355E0,-4.0943585E-2,-2.596596E-1,4.9456882E0,-1.9406468E0,1.2093533E0,-3.9846957E0,3.5539353E0,1.9052798E0,6.7436063E-1],"categories":[],"categories_nodes":[],"categories_segments":[],"categories_sizes":[],"default_left":[0,0,0,0,0,0,0,0,0,0,0,0,0,0,0,0,0,0,0,0,0,0,0,0,0,0,0,0,0,0,0,0,0,0,0,0,0,0,0,0,0,0,0,0,0,0,0,0,0,0,0,0,0,0,0,0,0,0,0,0,0,0,0,0,0,0,0,0,0,0,0,0,0,0,0,0,0,0,0,0,0,0,0,0,0,0,0,0,0,0,0,0,0,0,0],"id":6,"left_children":[1,3,5,7,9,11,-1,13,15,17,19,21,23,25,27,29,31,33,35,37,39,41,43,45,47,49,51,-1,53,55,57,59,61,63,65,67,69,71,73,75,77,79,81,83,85,87,89,91,93,-1,-1,-1,-1,-1,-1,-1,-1,-1,-1,-1,-1,-1,-1,-1,-1,-1,-1,-1,-1,-1,-1,-1,-1,-1,-1,-1,-1,-1,-1,-1,-1,-1,-1,-1,-1,-1,-1,-1,-1,-1,-1,-1,-1,-1,-1],"loss_changes":[1.470939E4,4.0500786E3,4.695496E3,4.7610938E2,7.9958844E2,3.3364463E3,0E0,3.5658105E2,3.3477954E2,3.2752826E2,4.368742E2,9.3812256E2,1.8604131E3,1.9344531E2,2.9165833E2,1.0024719E2,2.5019434E2,1.5150798E2,4.802682E2,1.4232904E2,3.2087653E2,6.036011E2,8.017605E2,6.090825E2,1.0658901E3,1.24914E2,1.4270996E2,0E0,2.3760791E2,1.361326E2,3.407168E2,1.9708618E2,4.074785E2,3.6593588E2,2.9542114E2,3.1123248E2,2.1605664E2,1.1903366E2,5.2481647E2,8.0716516E2,2.0689612E2,7.4577246E2,7.3812805E2,1.1586234E3,7.967831E2,3.170752E2,1.082693E2,1.0804165E3,8.613164E2,0E0,0E0,0E0,0E0,0E0,0E0,0E0,0E0,0E0,0E0,0E0,0E0,0E0,0E0,0E0,0E0,0E0,0E0,0E0,0E0,0E0,0E0,0E0,0E0,0E0,0E0,0E0,0E0,0E0,0E0,0E0,0E0,0E0,0E0,0E0,0E0,0E0,0E0,0E0,0E0,0E0,0E0,0E0,0E0,0E0,0E0],"parents":[2147483647,0,0,1,1,2,2,3,3,4,4,5,5,7,7,8,8,9,9,10,10,11,11,12,12,13,13,14,14,15,15,16,16,17,17,18,18,19,19,20,20,21,21,22,22,23,23,24,24,25,25,26,26,28,28,29,29,30,30,31,31,32,32,33,33,34,34,35,35,36,36,37,37,38,38,39,39,40,40,41,41,42,42,43,43,44,44,45,45,46,46,47,47,48,48],"right_children":[2,4,6,8,10,12,-1,14,16,18,20,22,24,26,28,30,32,34,36,38,40,42,44,46,48,50,52,-1,54,56,58,60,62,64,66,68,70,72,74,76,78,80,82,84,86,88,90,92,94,-1,-1,-1,-1,-1,-1,-1,-1,-1,-1,-1,-1,-1,-1,-1,-1,-1,-1,-1,-1,-1,-1,-1,-1,-1,-1,-1,-1,-1,-1,-1,-1,-1,-1,-1,-1,-1,-1,-1,-1,-1,-1,-1,-1,-1,-1],"split_conditions":[6.8666664E1,4.6333332E1,4.1399998E1,2.8820242E1,5.6333332E1,8.8E1,1.5651508E1,3.5333332E1,2.996662E1,1.7114204E1,1.6455001E0,2.2725668E1,9.3876505E0,7.33925E0,-1.923E0,3.9666668E1,3.9E1,7.6039566E1,2.495809E2,6.9500465E1,1.7884033E2,6.1353335E0,5.6903385E1,1.7587164E1,2.2770002E0,1.4904173E1,2.540034E2,2.4886172E0,1.0058E1,1.4778671E2,2.2822871E2,3.4978335E0,6.6E0,1E-1,1.9239539E2,3.6E0,4.9333332E1,-3.0424997E-1,7E-1,5.6903385E1,1.8309955E2,2.5702948E2,6.362417E0,5.2731617E1,7.18644E1,-7.125833E-1,9.7666664E1,9.6480665E0,1.8956432E2,4.4724306E-1,-6.3164234E-1,-8.3992386E-1,-1.3910632E0,-2.559748E-1,-6.286005E-1,1.2747688E0,-1.4724033E0,-3.745509E0,-1.0469449E0,9.9436545E-1,-1.2208023E0,-8.334133E-1,5.406957E-1,-1.0103312E0,5.0479347E-1,6.7520875E-1,-6.4868495E-2,-1.26484E-2,-5.377789E-1,-1.2607741E0,-5.293954E-1,-1.4036252E0,7.18241E-1,9.370075E-1,4.751408E0,-2.5118893E-1,7.191701E-1,-1.2802165E0,3.1559173E-2,2.0133345E0,4.8076043E-1,-2.9609134E0,7.252852E-1,7.817675E-1,7.121313E0,-2.6113355E0,-4.0943585E-2,-2.596596E-1,4.9456882E0,-1.9406468E0,1.2093533E0,-3.9846957E0,3.5539353E0,1.9052798E0,6.7436063E-1],"split_indices":[0,0,3,3,0,0,0,0,3,3,1,3,3,1,1,0,0,4,4,4,4,1,4,1,1,3,4,0,1,4,4,1,2,2,4,2,0,1,2,4,4,4,1,4,4,1,0,3,4,0,0,0,0,0,0,0,0,0,0,0,0,0,0,0,0,0,0,0,0,0,0,0,0,0,0,0,0,0,0,0,0,0,0,0,0,0,0,0,0,0,0,0,0,0,0],"split_type":[0,0,0,0,0,0,0,0,0,0,0,0,0,0,0,0,0,0,0,0,0,0,0,0,0,0,0,0,0,0,0,0,0,0,0,0,0,0,0,0,0,0,0,0,0,0,0,0,0,0,0,0,0,0,0,0,0,0,0,0,0,0,0,0,0,0,0,0,0,0,0,0,0,0,0,0,0,0,0,0,0,0,0,0,0,0,0,0,0,0,0,0,0,0,0],"sum_hessian":[4.089E3,3.221E3,8.68E2,1.238E3,1.983E3,8.67E2,1E0,9.23E2,3.15E2,9.37E2,1.046E3,5.91E2,2.76E2,2.6E2,6.63E2,4.1E1,2.74E2,2.8E2,6.57E2,3.8E1,1.008E3,4.42E2,1.49E2,2.6E1,2.5E2,4.4E1,2.16E2,2E0,6.61E2,2.3E1,1.8E1,1.45E2,1.29E2,5.7E1,2.23E2,4.79E2,1.78E2,1.3E1,2.5E1,3.33E2,6.75E2,1.24E2,3.18E2,2.4E1,1.25E2,2.4E1,2E0,3.4E1,2.16E2,1.3E1,3.1E1,1.52E2,6.4E1,2.49E2,4.12E2,1E0,2.2E1,8E0,1E1,3E0,1.42E2,1.06E2,2.3E1,3.3E1,2.4E1,7E1,1.53E2,3.34E2,1.45E2,5.2E1,1.26E2,2E0,1.1E1,2.2E1,3E0,1.2E2,2.13E2,1E1,6.65E2,7.8E1,4.6E1,4E0,3.14E2,2.2E1,2E0,1.1E1,1.14E2,1E0,2.3E1,1E0,1E0,1E0,3.3E1,1.29E2,8.7E1],"tree_param":{"num_deleted":"0","num_feature":"5","num_nodes":"95","size_leaf_vector":"1"}},{"base_weights":[4.496287E-2,-9.647896E-1,1.8684425E0,-1.7640235E0,-4.1738227E-1,1.1662202E0,4.8449035E0,5.026233E-2,-1.8756664E0,-1.5371083E-1,-1.3661474E0,4.4059606E0,9.888872E-1,4.542207E0,1.3303782E1,-6.0951233E0,4.59117E-1,-5.408057E0,-1.8168609E0,-3.4859005E-1,1.2777748E0,3.9262697E-1,-1.8739483E0,1.3704504E1,2.743831E0,8.779702E-1,6.7570157E0,7.6386104E0,3.1780825E0,-2.8944192E0,-1.6947886E0,1.7919135E0,-7.6307726E-1,-3.1629524E0,-1.9316477E0,-1.3799269E0,-2.2148602E0,-1.8029655E0,-7.4522663E-3,3.0569765E-1,3.783494E0,2.2741647E0,-9.248042E-1,-8.723125E0,-1.6534529E0,4.474296E0,6.0389674E-1,6.7405546E-1,7.942325E0,1.019403E0,-3.105253E0,3.5853028E0,9.314454E0,1.0859426E1,5.922445E0,-5.7557673E0,3.3933666E0,-5.9318163E-2,-7.033367E-1,1.714354E-1,1.1211251E0,-5.733539E-1,8.7603813E-1,-1.0832369E0,-4.0867198E-1,-4.4827503E-1,8.420025E-1,-6.3875747E-1,-1.7909547E0,7.164109E-1,-6.8827945E-1,7.4890304E-1,-6.848241E-2,3.0714643E-1,-4.9833354E-1,1.4336827E0,6.591294E-2,2.1888465E-1,1.2623695E0,-2.094571E0,-1.4724058E-1,-3.1790395E0,-1.2600758E0,-6.696966E-1,-1.8777633E-1,1.3090428E0,-6.2466425E-1,-1.7131158E0,3.144601E0,4.868206E-1,5.6819543E-2,-2.460838E0,-2.975239E-1,-7.880288E-1,1.5772873E0,3.1075764E0,-1.6903038E-1,4.6896943E-1,3.9971087E0,-4.3430195E0,2.1971462E0,1.3817458E0,-2.089822E-1],"categories":[],"categories_nodes":[],"categories_segments":[],"categories_sizes":[],"default_left":[0,0,0,0,0,0,0,0,0,0,0,0,0,0,0,0,0,0,0,0,0,0,0,0,0,0,0,0,0,0,0,0,0,0,0,0,0,0,0,0,0,0,0,0,0,0,0,0,0,0,0,0,0,0,0,0,0,0,0,0,0,0,0,0,0,0,0,0,0,0,0,0,0,0,0,0,0,0,0,0,0,0,0,0,0,0,0,0,0,0,0,0,0,0,0,0,0,0,0,0,0,0,0],"id":7,"left_children":[1,3,5,7,9,11,13,15,17,19,21,23,25,27,-1,29,31,33,35,37,39,41,43,45,47,49,51,53,55,-1,57,59,61,63,-1,65,67,69,71,73,75,77,79,81,83,-1,-1,85,87,89,91,93,95,97,99,-1,101,-1,-1,-1,-1,-1,-1,-1,-1,-1,-1,-1,-1,-1,-1,-1,-1,-1,-1,-1,-1,-1,-1,-1,-1,-1,-1,-1,-1,-1,-1,-1,-1,-1,-1,-1,-1,-1,-1,-1,-1,-1,-1,-1,-1,-1,-1],"loss_changes":[7.5325693E3,1.1512183E3,3.0417695E3,2.1682495E2,3.9104376E2,6.7414294E2,3.1225713E3,1.6109026E2,1.995603E2,3.4217975E2,3.0439233E2,9.0517554E2,7.112648E2,1.1457383E3,0E0,4.6185074E1,9.910354E1,1.6661224E1,1.6962573E2,5.353242E2,3.5689905E2,1.9297047E2,3.8427295E2,9.727881E1,5.649114E2,6.234232E2,1.369455E2,3.999917E2,9.9913916E2,0E0,2.4542122E0,6.6710625E1,1.4089914E2,7.262192E-1,0E0,2.3201941E2,1.5392212E2,4.2758124E2,4.8435226E2,1.5282883E2,1.4440009E2,9.250575E1,1.1749783E2,2.3285828E1,1.5146802E2,0E0,0E0,4.056781E2,5.799586E2,5.3251025E2,4.0126492E2,1.280848E2,1.1928839E2,6.206052E2,1.7354779E3,0E0,9.602761E2,0E0,0E0,0E0,0E0,0E0,0E0,0E0,0E0,0E0,0E0,0E0,0E0,0E0,0E0,0E0,0E0,0E0,0E0,0E0,0E0,0E0,0E0,0E0,0E0,0E0,0E0,0E0,0E0,0E0,0E0,0E0,0E0,0E0,0E0,0E0,0E0,0E0,0E0,0E0,0E0,0E0,0E0,0E0,0E0,0E0,0E0],"parents":[2147483647,0,0,1,1,2,2,3,3,4,4,5,5,6,6,7,7,8,8,9,9,10,10,11,11,12,12,13,13,15,15,16,16,17,17,18,18,19,19,20,20,21,21,22,22,23,23,24,24,25,25,26,26,27,27,28,28,30,30,31,31,32,32,33,33,35,35,36,36,37,37,38,38,39,39,40,40,41,41,42,42,43,43,44,44,47,47,48,48,49,49,50,50,51,51,52,52,53,53,54,54,56,56],"right_children":[2,4,6,8,10,12,14,16,18,20,22,24,26,28,-1,30,32,34,36,38,40,42,44,46,48,50,52,54,56,-1,58,60,62,64,-1,66,68,70,72,74,76,78,80,82,84,-1,-1,86,88,90,92,94,96,98,100,-1,102,-1,-1,-1,-1,-1,-1,-1,-1,-1,-1,-1,-1,-1,-1,-1,-1,-1,-1,-1,-1,-1,-1,-1,-1,-1,-1,-1,-1,-1,-1,-1,-1,-1,-1,-1,-1,-1,-1,-1,-1,-1,-1,-1,-1,-1,-1],"split_conditions":[6.1333332E1,4.4333332E1,8.8E1,1.1753877E1,2.6035446E2,2.0499165E0,3.7868507E1,6.778141E0,2.3333334E1,1.833117E1,1.3797912E1,1.0137692E1,2.2901999E1,1.2324414E1,1.3303782E1,4.1E1,1.6683894E2,2.5277023E1,5E-1,6.9500465E1,5.7E1,7.5353336E0,1.4277983E1,3.1169342E2,2E-1,3.456E1,7.3666664E1,3.3496666E0,1.2425216E1,-2.8944192E0,4.2333332E1,9.643461E1,4.2333332E1,2.1384592E2,-1.9316477E0,3.7212578E1,4.4E1,9.495825E0,9.643461E1,2.2506053E2,2.2071423E2,2.966119E2,4.5333332E1,8.243666E0,3.093962E2,4.474296E0,6.0389674E-1,1.2324414E1,2.8706797E1,2.237819E2,8E-1,8.20671E1,6.1E0,3.318288E1,3.6374168E0,-5.7557673E0,2.1999998E0,-5.9318163E-2,-7.033367E-1,1.714354E-1,1.1211251E0,-5.733539E-1,8.7603813E-1,-1.0832369E0,-4.0867198E-1,-4.4827503E-1,8.420025E-1,-6.3875747E-1,-1.7909547E0,7.164109E-1,-6.8827945E-1,7.4890304E-1,-6.848241E-2,3.0714643E-1,-4.9833354E-1,1.4336827E0,6.591294E-2,2.1888465E-1,1.2623695E0,-2.094571E0,-1.4724058E-1,-3.1790395E0,-1.2600758E0,-6.696966E-1,-1.8777633E-1,1.3090428E0,-6.2466425E-1,-1.7131158E0,3.144601E0,4.868206E-1,5.6819543E-2,-2.460838E0,-2.975239E-1,-7.880288E-1,1.5772873E0,3.1075764E0,-1.6903038E-1,4.6896943E-1,3.9971087E0,-4.3430195E0,2.1971462E0,1.3817458E0,-2.089822E-1],"split_indices":[0,0,0,3,4,1,3,3,0,1,3,3,1,3,0,0,4,3,2,4,0,1,3,4,2,3,0,1,3,0,0,4,0,4,0,3,0,4,4,4,4,4,0,1,4,0,0,3,4,4,2,4,2,4,1,0,2,0,0,0,0,0,0,0,0,0,0,0,0,0,0,0,0,0,0,0,0,0,0,0,0,0,0,0,0,0,0,0,0,0,0,0,0,0,0,0,0,0,0,0,0,0,0],"split_type":[0,0,0,0,0,0,0,0,0,0,0,0,0,0,0,0,0,0,0,0,0,0,0,0,0,0,0,0,0,0,0,0,0,0,0,0,0,0,0,0,0,0,0,0,0,0,0,0,0,0,0,0,0,0,0,0,0,0,0,0,0,0,0,0,0,0,0,0,0,0,0,0,0,0,0,0,0,0,0,0,0,0,0,0,0,0,0,0,0,0,0,0,0,0,0,0,0,0,0,0,0,0,0],"sum_hessian":[4.089E3,2.632E3,1.457E3,1.069E3,1.563E3,1.18E3,2.77E2,6.2E1,1.007E3,1.224E3,3.39E2,6E1,1.12E3,2.76E2,1E0,3E0,5.9E1,1.5E1,9.92E2,1.078E3,1.46E2,7.6E1,2.63E2,8E0,5.2E1,1.1E3,2E1,8.3E1,1.93E2,1E0,2E0,2.8E1,3.1E1,6E0,9E0,4.75E2,5.17E2,2.04E2,8.74E2,1.06E2,4E1,3.1E1,4.5E1,7E0,2.56E2,7E0,1E0,3.8E1,1.4E1,1.063E3,3.7E1,1E1,1E1,2.7E1,5.6E1,1E0,1.92E2,1E0,1E0,1.8E1,1E1,2.4E1,7E0,4E0,2E0,4.63E2,1.2E1,5.07E2,1E1,2.1E1,1.83E2,7E1,8.04E2,7.8E1,2.8E1,3.1E1,9E0,1.8E1,1.3E1,2E0,4.3E1,4E0,3E0,1.63E2,9.3E1,1.6E1,2.2E1,2E0,1.2E1,6.15E2,4.48E2,1E1,2.7E1,2E0,8E0,9E0,1E0,6E0,2.1E1,3E0,5.3E1,1.48E2,4.4E1],"tree_param":{"num_deleted":"0","num_feature":"5","num_nodes":"103","size_leaf_vector":"1"}},{"base_weights":[3.347525E-2,-2.8555134E-1,2.9529207E0,-9.6865135E-1,3.5639676E-1,2.7727337E0,1.1308214E1,-1.7596881E0,-7.657679E-1,1.7990519E0,1.8010783E-1,4.601529E0,1.5062269E0,2.1128395E0,-1.8304926E0,-7.996123E-1,4.0997934E0,2.6325333E0,-4.405048E-1,-1.7424439E0,3.0422497E-1,1.7349573E0,7.817851E0,2.568515E0,-2.3633192E0,-5.57091E-1,1.6663318E0,-1.4711388E0,-2.7557602E0,-6.365409E-1,-1.5681581E0,-2.0497246E0,7.0281186E0,3.3166437E0,3.5505146E-1,-4.172603E0,1.1176946E0,1.0189693E1,-2.4552028E0,1.0497385E0,-1.6986437E-2,1.1584989E1,1.0020038E0,2.0635174E1,7.019376E0,1.8088188E0,1.4628279E1,-1.5879496E0,-6.286075E0,-2.8783685E-1,-7.138951E-1,-1.5268123E0,-6.62969E-1,-2.0656109E-1,8.7823796E-1,-7.342683E-1,2.7954748E-1,5.1598743E-2,-1.3072329E0,2.6040537E0,5.7959366E-1,-4.461386E-1,1.181215E0,-2.1950717E-1,7.7685297E-1,-2.923313E0,-5.125932E-1,1.3717914E0,-1.9490834E-1,4.4297564E-1,4.2531304E0,-4.3790528E-1,-1.6391697E0,6.792971E-2,7.488961E-1,-1.6356537E0,5.200733E-3,-2.9105645E-1,4.287019E0,-4.1930466E0,6.424125E-1,1.074717E0,7.537592E0,1.645948E0,3.9590945E0,1.0136726E0,-5.2917224E-1,-1.8093796E-1,5.424015E0,-1.1361033E0,1.3483068E0],"categories":[],"categories_nodes":[],"categories_segments":[],"categories_sizes":[],"default_left":[0,0,0,0,0,0,0,0,0,0,0,0,0,0,0,0,0,0,0,0,0,0,0,0,0,0,0,0,0,0,0,0,0,0,0,0,0,0,0,0,0,0,0,0,0,0,0,0,0,0,0,0,0,0,0,0,0,0,0,0,0,0,0,0,0,0,0,0,0,0,0,0,0,0,0,0,0,0,0,0,0,0,0,0,0,0,0,0,0,0,0],"id":8,"left_children":[1,3,5,7,9,11,-1,13,15,17,19,21,23,25,27,29,31,33,35,37,39,41,43,45,47,-1,-1,49,51,53,55,57,59,61,63,65,67,69,71,73,75,77,79,81,83,85,87,89,-1,-1,-1,-1,-1,-1,-1,-1,-1,-1,-1,-1,-1,-1,-1,-1,-1,-1,-1,-1,-1,-1,-1,-1,-1,-1,-1,-1,-1,-1,-1,-1,-1,-1,-1,-1,-1,-1,-1,-1,-1,-1,-1],"loss_changes":[3.8101907E3,1.6175876E3,2.4182234E3,2.8544507E2,4.834004E2,9.241741E2,0E0,1.03673584E2,2.3777118E2,3.8755188E2,4.0523236E2,1.4984861E3,9.8849713E2,1.0595187E2,1.14980225E2,1.763407E2,1.9448361E2,2.3408777E2,3.3613885E2,9.010058E2,3.817289E2,6.2371796E2,6.431958E2,1.6959502E3,7.162716E2,0E0,0E0,1.18582886E2,1.1486267E2,2.1864777E2,5.453083E2,2.1257883E1,4.216397E1,3.5175476E2,8.931278E1,2.1673691E2,2.533262E2,1.8752258E2,2.8555524E2,5.711051E2,2.0809535E2,2.1764014E2,1.446444E3,2.1626831E2,6.2834106E2,1.0044511E3,5.8923315E2,6.9916364E2,0E0,0E0,0E0,0E0,0E0,0E0,0E0,0E0,0E0,0E0,0E0,0E0,0E0,0E0,0E0,0E0,0E0,0E0,0E0,0E0,0E0,0E0,0E0,0E0,0E0,0E0,0E0,0E0,0E0,0E0,0E0,0E0,0E0,0E0,0E0,0E0,0E0,0E0,0E0,0E0,0E0,0E0,0E0],"parents":[2147483647,0,0,1,1,2,2,3,3,4,4,5,5,7,7,8,8,9,9,10,10,11,11,12,12,13,13,14,14,15,15,16,16,17,17,18,18,19,19,20,20,21,21,22,22,23,23,24,24,27,27,28,28,29,29,30,30,31,31,32,32,33,33,34,34,35,35,36,36,37,37,38,38,39,39,40,40,41,41,42,42,43,43,44,44,45,45,46,46,47,47],"right_children":[2,4,6,8,10,12,-1,14,16,18,20,22,24,26,28,30,32,34,36,38,40,42,44,46,48,-1,-1,50,52,54,56,58,60,62,64,66,68,70,72,74,76,78,80,82,84,86,88,90,-1,-1,-1,-1,-1,-1,-1,-1,-1,-1,-1,-1,-1,-1,-1,-1,-1,-1,-1,-1,-1,-1,-1,-1,-1,-1,-1,-1,-1,-1,-1,-1,-1,-1,-1,-1,-1,-1,-1,-1,-1,-1,-1],"split_conditions":[8.1666664E1,5.2666668E1,3.7868507E1,3.5333332E1,1.1620809E1,1.1832195E2,1.1308214E1,2.2770002E0,2.3272837E1,2E-1,3.318288E1,6.81985E1,2.1999998E0,2.126744E1,2.5493144E2,4.3E0,8.645769E1,1.5362168E1,5.9040833E0,1.27279215E1,1.7884033E2,9.021574E0,6.9500465E1,1.7000002E0,1.3433333E2,-5.57091E-1,1.6663318E0,2.7897097E1,2.7333334E1,4.0000005E0,3.355733E1,5.1666668E1,1.935314E1,8.049845E0,1.9112167E1,3E-1,1.1645752E1,1.2261157E1,2.4381361E1,1.04774605E2,1.1874544E1,-7.125833E-1,1.0137692E1,8.2333336E1,1.19333336E2,2E-1,1.4081478E1,1E2,-6.286075E0,-2.8783685E-1,-7.138951E-1,-1.5268123E0,-6.62969E-1,-2.0656109E-1,8.7823796E-1,-7.342683E-1,2.7954748E-1,5.1598743E-2,-1.3072329E0,2.6040537E0,5.7959366E-1,-4.461386E-1,1.181215E0,-2.1950717E-1,7.7685297E-1,-2.923313E0,-5.125932E-1,1.3717914E0,-1.9490834E-1,4.4297564E-1,4.2531304E0,-4.3790528E-1,-1.6391697E0,6.792971E-2,7.488961E-1,-1.6356537E0,5.200733E-3,-2.9105645E-1,4.287019E0,-4.1930466E0,6.424125E-1,1.074717E0,7.537592E0,1.645948E0,3.9590945E0,1.0136726E0,-5.2917224E-1,-1.8093796E-1,5.424015E0,-1.1361033E0,1.3483068E0],"split_indices":[0,0,3,0,3,4,0,1,1,2,4,4,2,3,4,2,4,1,1,3,4,3,4,2,0,0,0,3,0,2,3,0,3,3,1,2,1,3,4,4,3,1,3,0,0,2,3,0,0,0,0,0,0,0,0,0,0,0,0,0,0,0,0,0,0,0,0,0,0,0,0,0,0,0,0,0,0,0,0,0,0,0,0,0,0,0,0,0,0,0,0],"split_type":[0,0,0,0,0,0,0,0,0,0,0,0,0,0,0,0,0,0,0,0,0,0,0,0,0,0,0,0,0,0,0,0,0,0,0,0,0,0,0,0,0,0,0,0,0,0,0,0,0,0,0,0,0,0,0,0,0,0,0,0,0,0,0,0,0,0,0,0,0,0,0,0,0,0,0,0,0,0,0,0,0,0,0,0,0,0,0,0,0,0,0],"sum_hessian":[4.089E3,3.687E3,4.02E2,1.786E3,1.901E3,4.01E2,1E0,3.63E2,1.423E3,2.06E2,1.695E3,1.63E2,2.38E2,6E0,3.57E2,1.414E3,9E0,1.5E2,5.6E1,1.02E2,1.593E3,8.7E1,7.6E1,1.87E2,5.1E1,3E0,3E0,2.59E2,9.8E1,1.168E3,2.46E2,3E0,6E0,1.15E2,3.5E1,1.6E1,4E1,5E0,9.7E1,4.79E2,1.114E3,5E0,8.2E1,3E0,7.3E1,1.77E2,1E1,5E1,1E0,1.67E2,9.2E1,1.7E1,8.1E1,1.152E3,1.6E1,1.82E2,6.4E1,2E0,1E0,4E0,2E0,1.3E1,1.02E2,2.4E1,1.1E1,4E0,1.2E1,1.3E1,2.7E1,2E0,3E0,7.4E1,2.3E1,3.06E2,1.73E2,6E0,1.108E3,1E0,4E0,5E0,7.7E1,1E0,2E0,6E1,1.3E1,1.23E2,5.4E1,2E0,8E0,3.7E1,1.3E1],"tree_param":{"num_deleted":"0","num_feature":"5","num_nodes":"91","size_leaf_vector":"1"}},{"base_weights":[2.991865E-2,-5.0252104E-1,9.914301E-1,5.8679843E0,-5.2173716E-1,8.7387985E-1,1.0346902E1,-9.5815915E-1,2.4909177E0,-9.281759E-1,-2.4340898E-1,7.797403E-1,5.4306154E0,7.186139E0,9.61198E0,-3.7762988E-1,-5.3541757E-2,-7.2846836E-1,-1.4815162E0,-1.4264114E-1,-1.8497626E0,3.262041E0,6.104149E-1,6.8662357E0,-2.833609E0,1.1557634E1,-9.91063E0,-1.8453435E0,-5.4783726E-1,-2.1496217E0,-5.747839E-1,5.3312726E-2,-8.1388474E-1,-4.6063285E0,-1.2959388E0,8.01565E0,1.7893581E0,-1.3929702E0,7.403697E-1,4.865779E0,1.6152191E1,-2.1311727E0,9.943008E-3,7.0992727E0,1.816283E1,-1.340477E0,-5.3431635E0,2.7373385E-1,-6.6848963E-1,3.8650745E-1,-2.6257008E-1,6.9098338E-3,-7.3673755E-1,-4.1402784E-1,4.330218E-1,3.107174E-1,-3.114223E-2,8.832947E-2,-3.3987457E-1,3.0828124E-1,-1.8301337E0,-2.1691568E0,-3.1338817E-1,3.1387806E-1,2.8781884E0,2.3516247E-2,1.9133515E0,-7.543833E-1,8.01742E-1,1.9790498E0,1.9615573E-1,-1.7493302E-1,1.8327115E0,5.684539E0,1.1645074E0,-6.4822084E-1,4.3612444E-1,2.9927907E0,-8.815018E-1,-2.3514634E-1,6.928635E0,-1.1230328E0,5.198181E-1],"categories":[],"categories_nodes":[],"categories_segments":[],"categories_sizes":[],"default_left":[0,0,0,0,0,0,0,0,0,0,0,0,0,0,0,0,0,0,0,0,0,0,0,0,0,0,0,0,0,0,0,0,0,0,0,0,0,0,0,0,0,0,0,0,0,0,0,0,0,0,0,0,0,0,0,0,0,0,0,0,0,0,0,0,0,0,0,0,0,0,0,0,0,0,0,0,0,0,0,0,0,0,0],"id":9,"left_children":[1,3,5,7,9,11,13,15,-1,17,19,21,23,25,-1,-1,-1,27,29,31,33,35,37,39,41,43,45,47,49,51,53,55,57,59,61,63,65,67,69,71,73,-1,75,77,79,81,-1,-1,-1,-1,-1,-1,-1,-1,-1,-1,-1,-1,-1,-1,-1,-1,-1,-1,-1,-1,-1,-1,-1,-1,-1,-1,-1,-1,-1,-1,-1,-1,-1,-1,-1,-1,-1],"loss_changes":[2.0943608E3,3.2538385E2,1.5943763E3,1.4093298E2,2.96836E2,6.1391003E2,1.00395386E3,4.7848296E-1,0E0,1.1683099E2,2.5225139E2,5.9191614E2,3.6352063E2,1.3850972E3,0E0,0E0,0E0,1.5755853E2,1.6959808E2,1.9326505E2,1.3448245E2,6.157074E2,3.4573413E2,3.858109E2,6.0784725E1,2.833341E2,2.469393E2,1.1714926E2,4.0871655E2,1.07819214E2,1.9864922E2,1.7576546E2,1.1772432E2,1.3253513E2,1.0877835E2,2.2095935E2,5.490529E2,3.7607758E2,6.260029E2,1.5259863E2,6.3694336E1,0E0,1.5677316E1,3.1806427E2,4.8538574E2,2.8640774E1,0E0,0E0,0E0,0E0,0E0,0E0,0E0,0E0,0E0,0E0,0E0,0E0,0E0,0E0,0E0,0E0,0E0,0E0,0E0,0E0,0E0,0E0,0E0,0E0,0E0,0E0,0E0,0E0,0E0,0E0,0E0,0E0,0E0,0E0,0E0,0E0,0E0],"parents":[2147483647,0,0,1,1,2,2,3,3,4,4,5,5,6,6,7,7,9,9,10,10,11,11,12,12,13,13,17,17,18,18,19,19,20,20,21,21,22,22,23,23,24,24,25,25,26,26,27,27,28,28,29,29,30,30,31,31,32,32,33,33,34,34,35,35,36,36,37,37,38,38,39,39,40,40,42,42,43,43,44,44,45,45],"right_children":[2,4,6,8,10,12,14,16,-1,18,20,22,24,26,-1,-1,-1,28,30,32,34,36,38,40,42,44,46,48,50,52,54,56,58,60,62,64,66,68,70,72,74,-1,76,78,80,82,-1,-1,-1,-1,-1,-1,-1,-1,-1,-1,-1,-1,-1,-1,-1,-1,-1,-1,-1,-1,-1,-1,-1,-1,-1,-1,-1,-1,-1,-1,-1,-1,-1,-1,-1,-1,-1],"split_conditions":[6.1333332E1,-1.923E0,1.3433333E2,4.208909E1,4.4333332E1,2.2901999E1,5E0,3.0333334E1,2.4909177E0,2.8387545E1,3.6749985E1,2.0499165E0,9.3666664E1,1.9586117E1,9.61198E0,-3.7762988E-1,-5.3541757E-2,5.8392506E1,3.417157E1,2.6035446E2,4.7E1,1.0691453E1,2.8706797E1,8.9E1,9.7666664E1,2.304341E2,6.1353335E0,1.1525623E1,1.6683894E2,6.049666E0,5.4E0,5.8205E0,1.3708391E1,8.349916E0,2.8706797E1,2.2693895E1,3E-1,1.4000002E0,3.507383E1,1.477755E1,2.3272837E1,-2.1311727E0,1.2479611E2,1.3147722E2,9.6480665E0,1.8624167E0,-5.3431635E0,2.7373385E-1,-6.6848963E-1,3.8650745E-1,-2.6257008E-1,6.9098338E-3,-7.3673755E-1,-4.1402784E-1,4.330218E-1,3.107174E-1,-3.114223E-2,8.832947E-2,-3.3987457E-1,3.0828124E-1,-1.8301337E0,-2.1691568E0,-3.1338817E-1,3.1387806E-1,2.8781884E0,2.3516247E-2,1.9133515E0,-7.543833E-1,8.01742E-1,1.9790498E0,1.9615573E-1,-1.7493302E-1,1.8327115E0,5.684539E0,1.1645074E0,-6.4822084E-1,4.3612444E-1,2.9927907E0,-8.815018E-1,-2.3514634E-1,6.928635E0,-1.1230328E0,5.198181E-1],"split_indices":[0,1,0,4,0,1,2,0,0,3,3,1,0,3,0,0,0,4,3,4,0,3,4,0,0,4,1,3,4,1,2,1,3,1,4,4,2,2,4,3,1,0,4,4,3,1,0,0,0,0,0,0,0,0,0,0,0,0,0,0,0,0,0,0,0,0,0,0,0,0,0,0,0,0,0,0,0,0,0,0,0,0,0],"split_type":[0,0,0,0,0,0,0,0,0,0,0,0,0,0,0,0,0,0,0,0,0,0,0,0,0,0,0,0,0,0,0,0,0,0,0,0,0,0,0,0,0,0,0,0,0,0,0,0,0,0,0,0,0,0,0,0,0,0,0,0,0,0,0,0,0,0,0,0,0,0,0,0,0,0,0,0,0,0,0,0,0,0,0],"sum_hessian":[4.089E3,2.632E3,1.457E3,7E0,2.625E3,1.44E3,1.7E1,2E0,5E0,1.066E3,1.559E3,1.412E3,2.8E1,1.6E1,1E0,1E0,1E0,7.85E2,2.81E2,1.468E3,9.1E1,8.9E1,1.323E3,2.4E1,4E0,1.3E1,3E0,1.08E2,6.77E2,1.61E2,1.2E2,1.137E3,3.31E2,1.4E1,7.7E1,2E1,6.9E1,8E1,1.243E3,2.1E1,3E0,1E0,3E0,9E0,4E0,2E0,1E0,1.3E1,9.5E1,1.02E2,5.75E2,2E1,1.41E2,8.6E1,3.4E1,1.56E2,9.81E2,7.4E1,2.57E2,3E0,1.1E1,2E0,7.5E1,4E0,1.6E1,5.1E1,1.8E1,6.3E1,1.7E1,1.7E1,1.226E3,4E0,1.7E1,2E0,1E0,1E0,2E0,7E0,2E0,1E0,3E0,1E0,1E0],"tree_param":{"num_deleted":"0","num_feature":"5","num_nodes":"83","size_leaf_vector":"1"}},{"base_weights":[2.6587177E-2,-1.4665087E-1,1.925543E0,-4.5142922E-1,2.1508126E-1,1.7714598E0,8.170185E0,8.402658E-2,-6.056801E-1,-6.7264026E-1,3.7850884E-1,5.5917063E0,1.3984506E0,5.159718E-1,-9.0476906E-1,-7.277762E-2,-8.458843E-1,-1.5163587E0,4.015085E0,1.3455606E0,7.6236136E-2,2.818678E0,3.8595598E0,-8.742767E0,1.5585403E0,3.8202265E-1,5.0724444E0,-2.4479377E0,4.5721777E-2,1.9451832E0,-3.899856E-1,-3.1335108E0,-7.188363E-1,1.1748567E0,-2.5123768E0,-5.980581E0,6.6195064E0,2.0390964E-1,2.9376988E0,6.5985894E-1,-3.7304196E-1,9.563238E0,-7.297697E-1,-3.9216034E0,-4.497803E-1,3.1171923E0,5.8744365E-1,1.4314489E-1,-1.3551804E0,2.3334556E0,-7.628317E-2,-5.1154155E-1,-1.9239125E0,-3.6255246E-1,5.831034E-1,8.155973E-2,1.372026E0,-7.405802E-1,-4.3230504E-2,-6.0741866E-1,-1.7544657E0,-4.6270975E-1,-1.4549571E-1,-2.525637E-1,9.6562487E-1,-2.597831E-1,-1.5996617E0,-6.224586E-1,-3.9301195E0,6.844725E-1,3.5018759E0,-4.713691E-2,1.2426112E0,1.1794617E0,-1.2712802E0,6.054621E-1,-6.329666E-2,-8.233848E-2,-3.1492517E0,-2.9448053E-1,3.3629618E0,7.6490176E-1,-1.2983763E0,5.005761E-1,1.9941071E0,-5.122433E-1,5.3546494E-1],"categories":[],"categories_nodes":[],"categories_segments":[],"categories_sizes":[],"default_left":[0,0,0,0,0,0,0,0,0,0,0,0,0,0,0,0,0,0,0,0,0,0,0,0,0,0,0,0,0,0,0,0,0,0,0,0,0,0,0,0,0,0,0,0,0,0,0,0,0,0,0,0,0,0,0,0,0,0,0,0,0,0,0,0,0,0,0,0,0,0,0,0,0,0,0,0,0,0,0,0,0,0,0,0,0,0,0],"id":10,"left_children":[1,3,5,7,9,11,-1,13,15,17,19,21,23,25,27,29,31,33,35,37,39,41,-1,43,45,47,49,51,53,55,57,59,61,63,65,67,69,71,73,75,77,79,81,-1,-1,83,85,-1,-1,-1,-1,-1,-1,-1,-1,-1,-1,-1,-1,-1,-1,-1,-1,-1,-1,-1,-1,-1,-1,-1,-1,-1,-1,-1,-1,-1,-1,-1,-1,-1,-1,-1,-1,-1,-1,-1,-1],"loss_changes":[1.3457754E3,4.1341733E2,1.2854188E3,1.6813074E2,2.4906366E2,4.7810083E2,0E0,1.9522696E2,2.0218695E2,1.0621055E3,4.234594E2,5.6882526E2,5.201594E2,1.9214891E2,2.0399265E2,3.1569434E2,3.142528E2,6.114249E2,1.1069385E3,6.264957E2,2.8998703E2,5.5743146E2,0E0,1.3719595E2,4.6435822E2,1.4663234E2,1.3169237E2,1.4516452E2,2.0945012E2,2.9341418E2,2.1737201E2,1.597301E2,1.9819006E2,2.582733E2,7.660641E2,2.2309052E2,6.967721E2,2.878529E2,1.0435386E3,5.694076E2,6.209146E2,1.4991162E2,1.9983363E2,0E0,0E0,5.922822E2,5.2792114E2,0E0,0E0,0E0,0E0,0E0,0E0,0E0,0E0,0E0,0E0,0E0,0E0,0E0,0E0,0E0,0E0,0E0,0E0,0E0,0E0,0E0,0E0,0E0,0E0,0E0,0E0,0E0,0E0,0E0,0E0,0E0,0E0,0E0,0E0,0E0,0E0,0E0,0E0,0E0,0E0],"parents":[2147483647,0,0,1,1,2,2,3,3,4,4,5,5,7,7,8,8,9,9,10,10,11,11,12,12,13,13,14,14,15,15,16,16,17,17,18,18,19,19,20,20,21,21,23,23,24,24,25,25,26,26,27,27,28,28,29,29,30,30,31,31,32,32,33,33,34,34,35,35,36,36,37,37,38,38,39,39,40,40,41,41,42,42,45,45,46,46],"right_children":[2,4,6,8,10,12,-1,14,16,18,20,22,24,26,28,30,32,34,36,38,40,42,-1,44,46,48,50,52,54,56,58,60,62,64,66,68,70,72,74,76,78,80,82,-1,-1,84,86,-1,-1,-1,-1,-1,-1,-1,-1,-1,-1,-1,-1,-1,-1,-1,-1,-1,-1,-1,-1,-1,-1,-1,-1,-1,-1,-1,-1,-1,-1,-1,-1,-1,-1,-1,-1,-1,-1,-1,-1],"split_conditions":[8.4E1,5.5E1,3.7868507E1,1.6299694E1,6.520159E1,9.3876505E0,8.170185E0,2.5977133E2,8.722583E0,2.5E0,1.7884033E2,2.563925E2,9.6480665E0,2.5769794E2,2.9136554E2,1.8532133E1,9.191585E0,1.4372974E1,1.9521421E1,6.7666664E1,2E-1,8.493156E1,3.8595598E0,8.356627E1,1.03380585E2,5.4666668E1,1.5226764E1,5.3E1,4.6666668E1,2.5852576E2,4.208909E1,3.269664E1,1.945333E1,1.1620809E1,6.7E1,1.6874918E1,6.3E1,7.6E0,5.1E0,2.4062584E2,8.3333336E1,-7.125833E-1,9.6E1,-3.9216034E0,-4.497803E-1,7.6039566E1,1.4277983E1,1.4314489E-1,-1.3551804E0,2.3334556E0,-7.628317E-2,-5.1154155E-1,-1.9239125E0,-3.6255246E-1,5.831034E-1,8.155973E-2,1.372026E0,-7.405802E-1,-4.3230504E-2,-6.0741866E-1,-1.7544657E0,-4.6270975E-1,-1.4549571E-1,-2.525637E-1,9.6562487E-1,-2.597831E-1,-1.5996617E0,-6.224586E-1,-3.9301195E0,6.844725E-1,3.5018759E0,-4.713691E-2,1.2426112E0,1.1794617E0,-1.2712802E0,6.054621E-1,-6.329666E-2,-8.233848E-2,-3.1492517E0,-2.9448053E-1,3.3629618E0,7.6490176E-1,-1.2983763E0,5.005761E-1,1.9941071E0,-5.122433E-1,5.3546494E-1],"split_indices":[0,0,3,3,4,3,0,4,1,2,4,4,3,4,4,3,1,3,4,0,2,4,0,4,4,0,3,0,0,4,4,3,3,3,0,1,0,2,2,4,0,1,0,0,0,4,3,0,0,0,0,0,0,0,0,0,0,0,0,0,0,0,0,0,0,0,0,0,0,0,0,0,0,0,0,0,0,0,0,0,0,0,0,0,0,0,0],"split_type":[0,0,0,0,0,0,0,0,0,0,0,0,0,0,0,0,0,0,0,0,0,0,0,0,0,0,0,0,0,0,0,0,0,0,0,0,0,0,0,0,0,0,0,0,0,0,0,0,0,0,0,0,0,0,0,0,0,0,0,0,0,0,0,0,0,0,0,0,0,0,0,0,0,0,0,0,0,0,0,0,0,0,0,0,0,0,0],"sum_hessian":[4.089E3,3.748E3,3.41E2,2.034E3,1.714E3,3.4E2,1E0,4.55E2,1.579E3,2.66E2,1.448E3,2.9E1,3.11E2,3.17E2,1.38E2,4.91E2,1.088E3,2.26E2,4E1,3.44E2,1.104E3,2.2E1,7E0,4E0,3.07E2,3.09E2,8E0,5.2E1,8.6E1,6.6E1,4.25E2,5.6E1,1.032E3,6.1E1,1.65E2,8E0,3.2E1,2.01E2,1.43E2,4.8E2,6.24E2,7E0,1.5E1,2E0,2E0,1.17E2,1.9E2,3.04E2,5E0,5E0,3E0,4.5E1,7E0,5.2E1,3.4E1,4.1E1,2.5E1,4.4E1,3.81E2,4.1E1,1.5E1,2.27E2,8.05E2,3.1E1,3E1,1.05E2,6E1,6E0,2E0,1.8E1,1.4E1,1.85E2,1.6E1,1.26E2,1.7E1,1.87E2,2.93E2,6.19E2,5E0,1E0,6E0,8E0,7E0,8.4E1,3.3E1,6.5E1,1.25E2],"tree_param":{"num_deleted":"0","num_feature":"5","num_nodes":"87","size_leaf_vector":"1"}},{"base_weights":[2.011335E-2,-1.1383027E-2,7.145926E0,-7.245916E-2,2.110309E0,9.3887005E0,-7.197512E0,1.4557658E0,-1.4139162E-1,9.3173295E-1,3.9641404E0,3.79743E0,2.093001E1,-4.6220093E0,1.3831284E0,3.675541E0,3.1363666E-1,-3.0175287E-1,3.1557795E-1,2.1711135E0,-1.296853E0,-5.898065E0,5.0978127E0,9.757344E0,1.6297127E0,8.667608E0,1.797397E0,2.6178434E0,7.5118947E0,-8.466363E0,7.098763E-1,-2.9579642E-1,-2.5514266E0,4.30459E0,2.1147713E-1,6.774116E0,1.4445493E0,1.6567029E-2,-4.254119E0,-2.9211996E0,1.41885E0,6.0460696E0,-1.2833214E0,8.7119526E-1,3.51961E0,-2.131421E0,3.3896222E0,5.252243E-1,2.8653893E0,1.1753308E0,5.0965047E0,-8.050281E-1,-4.739716E0,9.158275E-2,1.9859017E0,-8.1947386E-2,-7.1422553E-1,9.362202E-1,2.5247607E0,1.0661626E-1,-7.7840453E-1,3.0905445E0,7.304441E-1,9.316016E-1,-2.5502676E-1,3.4001556E-1,-1.0011603E0,2.1942788E-1,-1.8113617E0,1.3503482E0,3.4748049E0,-1.6167401E0,1.8470031E-1,1.8362306E0,-5.834656E-3],"categories":[],"categories_nodes":[],"categories_segments":[],"categories_sizes":[],"default_left":[0,0,0,0,0,0,0,0,0,0,0,0,0,0,0,0,0,0,0,0,0,0,0,0,0,0,0,0,0,0,0,0,0,0,0,0,0,0,0,0,0,0,0,0,0,0,0,0,0,0,0,0,0,0,0,0,0,0,0,0,0,0,0,0,0,0,0,0,0,0,0,0,0,0,0],"id":11,"left_children":[1,3,5,7,9,11,13,15,17,19,21,23,25,-1,-1,27,29,31,33,35,37,39,41,43,45,-1,-1,47,49,51,53,55,-1,57,59,61,63,65,67,-1,-1,69,71,-1,-1,-1,73,-1,-1,-1,-1,-1,-1,-1,-1,-1,-1,-1,-1,-1,-1,-1,-1,-1,-1,-1,-1,-1,-1,-1,-1,-1,-1,-1,-1],"loss_changes":[9.1802985E2,5.279516E2,6.466191E2,4.1736923E2,2.4538293E2,9.5300916E2,3.6183215E2,4.3237833E2,2.778272E2,1.989223E2,5.220096E2,1.3913124E2,4.2160864E2,0E0,0E0,2.156817E2,4.026142E2,1.3458694E2,4.0812024E2,1.4405577E2,1.0105792E2,2.5006294E2,2.4979736E2,6.530121E0,1.7780078E2,0E0,0E0,2.6584055E2,3.4215833E2,1.6962677E2,2.610009E2,1.3174635E2,0E0,9.5415375E1,3.8900793E2,6.676349E1,1.5888718E2,7.494776E1,7.556009E1,0E0,0E0,2.4723914E2,5.009927E1,0E0,0E0,0E0,8.391511E1,0E0,0E0,0E0,0E0,0E0,0E0,0E0,0E0,0E0,0E0,0E0,0E0,0E0,0E0,0E0,0E0,0E0,0E0,0E0,0E0,0E0,0E0,0E0,0E0,0E0,0E0,0E0,0E0],"parents":[2147483647,0,0,1,1,2,2,3,3,4,4,5,5,6,6,7,7,8,8,9,9,10,10,11,11,12,12,15,15,16,16,17,17,18,18,19,19,20,20,21,21,22,22,23,23,24,24,27,27,28,28,29,29,30,30,31,31,33,33,34,34,35,35,36,36,37,37,38,38,41,41,42,42,46,46],"right_children":[2,4,6,8,10,12,14,16,18,20,22,24,26,-1,-1,28,30,32,34,36,38,40,42,44,46,-1,-1,48,50,52,54,56,-1,58,60,62,64,66,68,-1,-1,70,72,-1,-1,-1,74,-1,-1,-1,-1,-1,-1,-1,-1,-1,-1,-1,-1,-1,-1,-1,-1,-1,-1,-1,-1,-1,-1,-1,-1,-1,-1,-1,-1],"split_conditions":[1.3433333E2,2.0974669E1,8.847584E0,2.0499165E0,6.5333336E1,6.1353335E0,9.399916E0,1.2261157E1,6.5E1,2.1254607E2,4.208909E1,-3.0424997E-1,8.079083E0,-4.6220093E0,1.3831284E0,1.1620809E1,1.2425216E1,5.16E1,6.5333336E1,1.2496719E1,4E-1,2.2901999E1,9.5E1,-7.125833E-1,1.252E0,8.667608E0,1.797397E0,1.06E2,1.252E0,7.7666664E1,3.372576E2,6.4666664E1,-2.5514266E0,1.9E0,1.8604082E1,6.4263626E1,5.1666668E1,6.3666668E1,2.1254086E1,-2.9211996E0,1.41885E0,8.9E1,9.7666664E1,8.7119526E-1,3.51961E0,-2.131421E0,1.6981165E1,5.252243E-1,2.8653893E0,1.1753308E0,5.0965047E0,-8.050281E-1,-4.739716E0,9.158275E-2,1.9859017E0,-8.1947386E-2,-7.1422553E-1,9.362202E-1,2.5247607E0,1.0661626E-1,-7.7840453E-1,3.0905445E0,7.304441E-1,9.316016E-1,-2.5502676E-1,3.4001556E-1,-1.0011603E0,2.1942788E-1,-1.8113617E0,1.3503482E0,3.4748049E0,-1.6167401E0,1.8470031E-1,1.8362306E0,-5.834656E-3],"split_indices":[0,1,1,1,0,1,1,3,0,4,4,1,1,0,0,3,3,2,0,3,2,1,0,1,1,0,0,0,1,0,4,0,0,2,1,4,0,0,1,0,0,0,0,0,0,0,3,0,0,0,0,0,0,0,0,0,0,0,0,0,0,0,0,0,0,0,0,0,0,0,0,0,0,0,0],"split_type":[0,0,0,0,0,0,0,0,0,0,0,0,0,0,0,0,0,0,0,0,0,0,0,0,0,0,0,0,0,0,0,0,0,0,0,0,0,0,0,0,0,0,0,0,0,0,0,0,0,0,0,0,0,0,0,0,0,0,0,0,0,0,0,0,0,0,0,0,0,0,0,0,0,0,0],"sum_hessian":[4.089E3,4.072E3,1.7E1,3.959E3,1.13E2,1.5E1,2E0,1.7E2,3.789E3,7E1,4.3E1,1.1E1,4E0,1E0,1E0,5.7E1,1.13E2,2.805E3,9.84E2,4.5E1,2.5E1,4E0,3.9E1,2E0,9E0,2E0,2E0,4.6E1,1.1E1,4E0,1.09E2,2.804E3,1E0,2.4E1,9.6E2,5E0,4E1,1.8E1,7E0,3E0,1E0,3.4E1,5E0,1E0,1E0,1E0,8E0,4.2E1,4E0,9E0,2E0,3E0,1E0,1.03E2,6E0,2.775E3,2.9E1,2E1,4E0,9.14E2,4.6E1,2E0,3E0,2.3E1,1.7E1,1.4E1,4E0,2E0,5E0,2.8E1,6E0,1E0,4E0,4E0,4E0],"tree_param":{"num_deleted":"0","num_feature":"5","num_nodes":"75","size_leaf_vector":"1"}},{"base_weights":[1.9235848E-2,-5.5683716E-3,5.6308107E0,-1.2262254E-1,6.6431516E-1,7.4817657E0,-6.117887E0,9.9152106E-1,-1.8570755E-1,1.1885786E0,-2.675502E-1,2.999017E0,1.6744009E1,-3.9287076E0,1.1756585E0,1.8978959E0,-9.91657E-1,-1.5974428E-1,-4.413627E0,-2.025949E0,1.7368903E0,2.7935066E0,-1.3111577E0,8.293742E0,1.110698E0,6.9340873E0,1.4379182E0,1.032704E0,4.689766E0,-3.084011E0,1.6023927E0,-1.9614442E-1,1.291433E0,-8.396953E0,1.3618912E1,-9.04145E-1,-4.9991446E0,2.2701235E0,-1.8049569E0,1.0752435E0,8.394281E0,-3.6995604E0,6.6131085E-2,7.405152E-1,2.9916687E0,4.3985353E0,-3.0568466E0,-4.8525175E-1,4.5756355E-1,2.0190904E0,-2.4578808E-1,-6.2024045E-1,-5.342007E0,1.076088E-1,1.7686646E0,-2.722418E-1,-3.4081947E-2,1.5474284E0,2.5499952E-1,-4.3278337E0,-1.404788E0,1.6436921E-1,5.337985E0,6.4357847E-1,-1.9903145E0,5.292139E-1,2.4138958E0,2.4599588E0,-9.893637E-1,-3.4307376E-1,1.0679517E0,3.1955912E0,1.9544679E-1,-1.5395099E0,2.8169107E-1,6.168912E-1,-9.2719024E-1,1.957164E0,5.1146793E-1,-1.6267852E0,9.6093524E-1],"categories":[],"categories_nodes":[],"categories_segments":[],"categories_sizes":[],"default_left":[0,0,0,0,0,0,0,0,0,0,0,0,0,0,0,0,0,0,0,0,0,0,0,0,0,0,0,0,0,0,0,0,0,0,0,0,0,0,0,0,0,0,0,0,0,0,0,0,0,0,0,0,0,0,0,0,0,0,0,0,0,0,0,0,0,0,0,0,0,0,0,0,0,0,0,0,0,0,0,0,0],"id":12,"left_children":[1,3,5,7,9,11,13,15,17,19,21,23,25,-1,-1,27,29,31,33,35,37,39,41,43,45,-1,-1,47,49,51,53,55,57,59,61,63,-1,65,67,69,71,73,75,-1,-1,77,79,-1,-1,-1,-1,-1,-1,-1,-1,-1,-1,-1,-1,-1,-1,-1,-1,-1,-1,-1,-1,-1,-1,-1,-1,-1,-1,-1,-1,-1,-1,-1,-1,-1,-1],"loss_changes":[5.693214E2,3.1945624E2,4.3720618E2,2.4393515E2,2.9637503E2,6.1410944E2,2.614236E2,3.362176E2,3.5967188E2,6.873932E2,7.032674E2,1.10765724E2,2.698296E2,0E0,0E0,3.0434128E2,3.2517435E2,1.7266772E2,1.5509468E3,9.209199E2,6.311228E2,5.29896E2,5.397261E2,4.7180786E0,1.5046773E2,0E0,0E0,1.3168668E2,3.4275702E2,4.5707095E2,1.4204868E2,1.8689322E2,1.3216586E2,3.1315027E2,2.0850427E2,9.5781885E2,0E0,8.3061096E2,6.842444E2,2.4663751E2,2.2031091E2,4.0339972E2,6.660186E2,0E0,0E0,2.3226997E1,9.1417465E1,0E0,0E0,0E0,0E0,0E0,0E0,0E0,0E0,0E0,0E0,0E0,0E0,0E0,0E0,0E0,0E0,0E0,0E0,0E0,0E0,0E0,0E0,0E0,0E0,0E0,0E0,0E0,0E0,0E0,0E0,0E0,0E0,0E0,0E0],"parents":[2147483647,0,0,1,1,2,2,3,3,4,4,5,5,6,6,7,7,8,8,9,9,10,10,11,11,12,12,15,15,16,16,17,17,18,18,19,19,20,20,21,21,22,22,23,23,24,24,27,27,28,28,29,29,30,30,31,31,32,32,33,33,34,34,35,35,37,37,38,38,39,39,40,40,41,41,42,42,45,45,46,46],"right_children":[2,4,6,8,10,12,14,16,18,20,22,24,26,-1,-1,28,30,32,34,36,38,40,42,44,46,-1,-1,48,50,52,54,56,58,60,62,64,-1,66,68,70,72,74,76,-1,-1,78,80,-1,-1,-1,-1,-1,-1,-1,-1,-1,-1,-1,-1,-1,-1,-1,-1,-1,-1,-1,-1,-1,-1,-1,-1,-1,-1,-1,-1,-1,-1,-1,-1,-1,-1],"split_conditions":[1.3433333E2,7.4333336E1,8.847584E0,1.0805998E1,2.1319641E2,6.1353335E0,9.399916E0,1E-1,7.3666664E1,1.1298495E1,1.2261157E1,-3.0424997E-1,8.079083E0,-3.9287076E0,1.1756585E0,6.6E1,1.2022834E1,2.0974669E1,5.6E0,1.8845227E2,4.7000003E0,1.0614251E1,1E-1,-7.125833E-1,1.3147722E2,6.9340873E0,1.4379182E0,4.1333332E1,1.2222584E1,1.19645E1,6.5666664E1,5.401438E1,1.2768586E1,1.5978484E1,9.399916E0,1.1447834E1,-4.9991446E0,3.2999997E0,5.449917E0,2.7481158E2,1.7037416E1,1.99954E1,2.268E1,7.405152E-1,2.9916687E0,1.6981165E1,1.6533333E2,-4.8525175E-1,4.5756355E-1,2.0190904E0,-2.4578808E-1,-6.2024045E-1,-5.342007E0,1.076088E-1,1.7686646E0,-2.722418E-1,-3.4081947E-2,1.5474284E0,2.5499952E-1,-4.3278337E0,-1.404788E0,1.6436921E-1,5.337985E0,6.4357847E-1,-1.9903145E0,5.292139E-1,2.4138958E0,2.4599588E0,-9.893637E-1,-3.4307376E-1,1.0679517E0,3.1955912E0,1.9544679E-1,-1.5395099E0,2.8169107E-1,6.168912E-1,-9.2719024E-1,1.957164E0,5.1146793E-1,-1.6267852E0,9.6093524E-1],"split_indices":[0,0,1,3,4,1,1,2,0,3,3,1,1,0,0,0,1,1,2,4,2,1,2,1,4,0,0,0,1,1,0,4,3,3,1,1,0,2,1,4,1,3,3,0,0,3,0,0,0,0,0,0,0,0,0,0,0,0,0,0,0,0,0,0,0,0,0,0,0,0,0,0,0,0,0,0,0,0,0,0,0],"split_type":[0,0,0,0,0,0,0,0,0,0,0,0,0,0,0,0,0,0,0,0,0,0,0,0,0,0,0,0,0,0,0,0,0,0,0,0,0,0,0,0,0,0,0,0,0,0,0,0,0,0,0,0,0,0,0,0,0,0,0,0,0,0,0,0,0,0,0,0,0,0,0,0,0,0,0,0,0,0,0,0,0],"sum_hessian":[4.089E3,4.072E3,1.7E1,3.467E3,6.05E2,1.5E1,2E0,1.85E2,3.282E3,3.87E2,2.18E2,1.1E1,4E0,1E0,1E0,1.27E2,5.8E1,3.263E3,1.9E1,5.6E1,3.31E2,5.5E1,1.63E2,2E0,9E0,2E0,2E0,9.8E1,2.9E1,3.2E1,2.6E1,3.184E3,7.9E1,1.6E1,3E0,5.3E1,3E0,2.88E2,4.3E1,4.3E1,1.2E1,5.9E1,1.04E2,1E0,1E0,5E0,4E0,1.5E1,8.3E1,2.1E1,8E0,3.1E1,1E0,2.1E1,5E0,3.3E2,2.854E3,7E0,7.2E1,5E0,1.1E1,1E0,2E0,3.5E1,1.8E1,2.66E2,2.2E1,5E0,3.8E1,2.3E1,2E1,9E0,3E0,4.5E1,1.4E1,6.4E1,4E1,2E0,3E0,3E0,1E0],"tree_param":{"num_deleted":"0","num_feature":"5","num_nodes":"81","size_leaf_vector":"1"}},{"base_weights":[1.60792E-2,-4.0113465E-3,4.56123E0,1.2713857E-1,-4.029217E-1,6.1064224E0,-5.2002044E0,7.7447176E-2,2.4201605E0,-4.9011168E-1,6.8746905E0,1.5977501E0,1.1675036E1,-3.3394015E0,9.993096E-1,1.0768469E-1,-2.8239503E0,9.3582945E0,8.335351E-1,-4.1989404E-1,-6.745993E0,1.7337814E1,-5.240984E-1,3.9619322E0,-1.5717957E0,5.250511E0,5.5472703E0,2.8362897E-1,-4.1025707E-1,-2.6648983E-1,-1.0143338E1,-3.6884233E-1,3.4796388E0,-4.374178E-2,6.7300715E0,-4.575581E-1,7.068834E0,1.9327881E0,-1.0392645E1,8.6204E-1,6.0706606E0,-6.248053E0,6.7618694E0,1.5846177E0,1.321291E0,-1.6382332E-1,2.0508535E0,-8.4702164E-2,1.5112427E-1,-4.03018E-2,-6.2322044E-1,-1.4953192E0,5.908134E-1,-4.606979E0,1.0992867E0,3.3218756E-1,-9.6835643E-1,2.2386293E0,3.5068703E-1,-7.84674E-1,-1.0392044E-1,3.1037843E0,-9.05943E-1,-4.3130975E0,-5.453894E-1,1.0526574E0,-2.8693485E0,6.042E-1,2.3019478E0,-7.301823E-1,1.0153047E0],"categories":[],"categories_nodes":[],"categories_segments":[],"categories_sizes":[],"default_left":[0,0,0,0,0,0,0,0,0,0,0,0,0,0,0,0,0,0,0,0,0,0,0,0,0,0,0,0,0,0,0,0,0,0,0,0,0,0,0,0,0,0,0,0,0,0,0,0,0,0,0,0,0,0,0,0,0,0,0,0,0,0,0,0,0,0,0,0,0,0,0],"id":13,"left_children":[1,3,5,7,9,11,13,15,17,19,21,23,25,-1,-1,27,29,31,33,35,37,39,41,43,-1,45,-1,47,49,51,53,-1,-1,55,57,59,61,-1,63,-1,-1,65,67,-1,69,-1,-1,-1,-1,-1,-1,-1,-1,-1,-1,-1,-1,-1,-1,-1,-1,-1,-1,-1,-1,-1,-1,-1,-1,-1,-1],"loss_changes":[3.734949E2,2.131386E2,3.0325394E2,3.4916318E2,6.429806E2,3.8305914E2,1.8887854E2,2.6367264E2,7.077339E2,4.351228E2,9.3806E2,1.8239859E2,2.094342E2,0E0,0E0,2.7095145E2,5.775873E2,2.9892322E2,2.796307E2,2.816234E2,5.959934E2,1.5142212E2,3.7588492E2,2.0908707E1,0E0,4.969037E1,0E0,2.765861E2,3.465569E2,2.6298297E2,6.3213275E2,0E0,0E0,1.7949518E2,1.9773285E1,2.3489447E2,1.9655093E2,0E0,2.813435E2,0E0,0E0,1.9535162E2,1.8530121E0,0E0,3.9226345E1,0E0,0E0,0E0,0E0,0E0,0E0,0E0,0E0,0E0,0E0,0E0,0E0,0E0,0E0,0E0,0E0,0E0,0E0,0E0,0E0,0E0,0E0,0E0,0E0,0E0,0E0],"parents":[2147483647,0,0,1,1,2,2,3,3,4,4,5,5,6,6,7,7,8,8,9,9,10,10,11,11,12,12,15,15,16,16,17,17,18,18,19,19,20,20,21,21,22,22,23,23,25,25,27,27,28,28,29,29,30,30,33,33,34,34,35,35,36,36,38,38,41,41,42,42,44,44],"right_children":[2,4,6,8,10,12,14,16,18,20,22,24,26,-1,-1,28,30,32,34,36,38,40,42,44,-1,46,-1,48,50,52,54,-1,-1,56,58,60,62,-1,64,-1,-1,66,68,-1,70,-1,-1,-1,-1,-1,-1,-1,-1,-1,-1,-1,-1,-1,-1,-1,-1,-1,-1,-1,-1,-1,-1,-1,-1,-1,-1],"split_conditions":[1.3433333E2,2.6518099E1,8.847584E0,2.5984919E1,8.9E1,1.6029576E2,9.399916E0,2.577962E1,9.643461E1,8.3333336E1,5.2290835E0,1.3147722E2,1.2096214E1,-3.3394015E0,9.993096E-1,2.5977133E2,6.1333332E1,1.5998356E1,6.4666664E1,8.2333336E1,7.758537E1,-3.0424997E-1,5E-1,1.6981165E1,-1.5717957E0,9.6480665E0,5.5472703E0,7.6039566E1,1.7037416E1,1E-1,1.0997833E1,-3.6884233E-1,3.4796388E0,4.2E0,4.6E0,5.2731617E1,8E-1,1.9327881E0,6.2000003E0,8.6204E-1,6.0706606E0,9.2E1,9.5E1,1.5846177E0,1.80036E1,-1.6382332E-1,2.0508535E0,-8.4702164E-2,1.5112427E-1,-4.03018E-2,-6.2322044E-1,-1.4953192E0,5.908134E-1,-4.606979E0,1.0992867E0,3.3218756E-1,-9.6835643E-1,2.2386293E0,3.5068703E-1,-7.84674E-1,-1.0392044E-1,3.1037843E0,-9.05943E-1,-4.3130975E0,-5.453894E-1,1.0526574E0,-2.8693485E0,6.042E-1,2.3019478E0,-7.301823E-1,1.0153047E0],"split_indices":[0,3,1,3,0,4,1,3,4,0,1,4,3,0,0,4,0,4,0,0,4,1,2,3,0,3,0,4,1,2,1,0,0,2,2,4,2,0,2,0,0,0,0,0,3,0,0,0,0,0,0,0,0,0,0,0,0,0,0,0,0,0,0,0,0,0,0,0,0,0,0],"split_type":[0,0,0,0,0,0,0,0,0,0,0,0,0,0,0,0,0,0,0,0,0,0,0,0,0,0,0,0,0,0,0,0,0,0,0,0,0,0,0,0,0,0,0,0,0,0,0,0,0,0,0,0,0,0,0,0,0,0,0,0,0,0,0,0,0,0,0,0,0,0,0],"sum_hessian":[4.089E3,4.072E3,1.7E1,3.065E3,1.007E3,1.5E1,2E0,3.001E3,6.4E1,9.96E2,1.1E1,9E0,6E0,1E0,1E0,2.971E3,3E1,1.1E1,5.3E1,9.86E2,1E1,4E0,7E0,7E0,2E0,4E0,2E0,2.218E3,7.53E2,2.3E1,7E0,2E0,9E0,4.7E1,6E0,9.82E2,4E0,2E0,8E0,1E0,3E0,4E0,3E0,4E0,3E0,1E0,3E0,6.21E2,1.597E3,6.47E2,1.06E2,7E0,1.6E1,5E0,2E0,3.5E1,1.2E1,5E0,1E0,4.7E1,9.35E2,3E0,1E0,5E0,3E0,1E0,3E0,1E0,2E0,1E0,2E0],"tree_param":{"num_deleted":"0","num_feature":"5","num_nodes":"71","size_leaf_vector":"1"}},{"base_weights":[1.4153519E-2,-6.3063756E-2,7.2076184E-1,8.42484E-2,-3.666823E-1,5.300305E-2,2.352608E0,4.1382408E-1,-1.7671654E-1,-2.89082E0,-2.6400656E-1,5.69425E-1,-8.1824875E0,-3.5342011E0,3.1870694E0,-2.3863962E0,4.759557E-1,-2.735461E-1,5.8912164E-1,-3.2681305E-2,-5.6285076E0,-2.1827282E-1,-4.278822E0,3.1359315E-1,7.2152762E0,-1.5324654E1,-2.893611E0,-1.0152544E1,2.0060883E0,2.6644804E0,3.8690753E0,-4.185393E0,3.7081597E0,5.9037524E-1,-1.0797789E0,-2.1164006E-1,-2.0666795E0,-2.672057E-1,4.1946034E0,3.1107097E0,-2.931759E0,-7.562781E0,1.4941025E-1,-4.2936454E0,-1.7503096E-1,-9.000867E0,-2.024355E-1,1.0930176E0,-4.309673E0,1.0459286E1,-3.8405075E0,-6.642016E0,-4.678091E0,3.4483922E0,-8.7533455E0,5.26989E-1,-1.2430179E1,2.4798744E0,-9.634214E-1,6.9974103E0,1.5479419E0,-3.5970578E-1,-2.0259683E0,-7.718033E-1,1.6436589E0,1.9029061E-1,-1.484045E0,1.458632E0,-5.319425E-1,2.2262368E-2,-1.8304184E-1,-1.2446966E0,3.4212876E-2,9.5664315E-2,-8.0135846E-1,2.1304004E0,5.5867916E-1,-6.7314494E-1,1.1404405E0,-1.275114E0,8.6413115E-1,-4.0664816E-1,-3.7179186E0,8.713643E-1,-4.6006623E-1,-3.8188842E-1,-2.4804034E0,-4.282123E-2,-1.6089382E0,-5.1529735E-1,-3.663917E0,7.563206E-1,-1.6745895E0,-1.6783437E0,4.0002495E-1,1.5651581E0,-1.8776993E0,1.0120926E-1,4.1331096E0,-1.588979E0,-1.3924943E-1,-1.7823205E0,-1.3337404E-1,-4.4771805E-1,2.6659927E0,-3.37562E0,5.610386E-1,-4.396588E0,-1.9569169E-1,-8.65567E-1,3.5977077E-1,-4.5545045E-1,2.4083786E0,-6.800218E-1,8.5718447E-1],"categories":[],"categories_nodes":[],"categories_segments":[],"categories_sizes":[],"default_left":[0,0,0,0,0,0,0,0,0,0,0,0,0,0,0,0,0,0,0,0,0,0,0,0,0,0,0,0,0,0,0,0,0,0,0,0,0,0,0,0,0,0,0,0,0,0,0,0,0,0,0,0,0,0,0,0,0,0,0,0,0,0,0,0,0,0,0,0,0,0,0,0,0,0,0,0,0,0,0,0,0,0,0,0,0,0,0,0,0,0,0,0,0,0,0,0,0,0,0,0,0,0,0,0,0,0,0,0,0,0,0,0,0,0,0],"id":14,"left_children":[1,3,5,7,9,11,13,15,17,19,21,23,25,27,29,31,33,35,37,39,41,43,45,47,49,51,53,55,57,59,-1,61,63,65,67,69,71,73,75,77,79,81,83,85,87,89,91,93,95,97,99,-1,101,103,105,-1,107,-1,109,111,113,-1,-1,-1,-1,-1,-1,-1,-1,-1,-1,-1,-1,-1,-1,-1,-1,-1,-1,-1,-1,-1,-1,-1,-1,-1,-1,-1,-1,-1,-1,-1,-1,-1,-1,-1,-1,-1,-1,-1,-1,-1,-1,-1,-1,-1,-1,-1,-1,-1,-1,-1,-1,-1,-1],"loss_changes":[2.2320552E2,1.6498296E2,4.3901617E2,2.1371625E2,3.115338E2,1.225267E3,5.860046E2,1.921682E2,1.0301521E2,3.675766E2,2.1187299E2,4.5849707E2,5.9781494E2,5.7037994E2,4.8828516E2,2.786582E2,1.9199443E2,1.3632178E2,4.8276654E2,2.2783029E2,2.6935565E2,2.0138046E2,2.4841333E2,9.48824E2,3.9881958E2,4.0435083E2,4.3897202E2,2.1170837E2,1.7527032E2,4.6811884E2,0E0,1.3760449E2,8.082433E1,2.4685532E2,3.1349243E2,1.3582628E2,1.8665164E2,1.7978795E2,1.9016003E2,5.291401E1,1.1187605E2,5.2289404E2,3.691186E1,1.3353874E2,1.895622E2,1.1939249E2,1.3128189E2,3.691847E2,7.383508E2,2.6400787E2,1.2290272E1,0E0,1.8746017E1,1.7447772E2,1.8031339E2,0E0,1.4768292E2,0E0,3.255346E1,1.876969E2,4.060537E2,0E0,0E0,0E0,0E0,0E0,0E0,0E0,0E0,0E0,0E0,0E0,0E0,0E0,0E0,0E0,0E0,0E0,0E0,0E0,0E0,0E0,0E0,0E0,0E0,0E0,0E0,0E0,0E0,0E0,0E0,0E0,0E0,0E0,0E0,0E0,0E0,0E0,0E0,0E0,0E0,0E0,0E0,0E0,0E0,0E0,0E0,0E0,0E0,0E0,0E0,0E0,0E0,0E0,0E0],"parents":[2147483647,0,0,1,1,2,2,3,3,4,4,5,5,6,6,7,7,8,8,9,9,10,10,11,11,12,12,13,13,14,14,15,15,16,16,17,17,18,18,19,19,20,20,21,21,22,22,23,23,24,24,25,25,26,26,27,27,28,28,29,29,31,31,32,32,33,33,34,34,35,35,36,36,37,37,38,38,39,39,40,40,41,41,42,42,43,43,44,44,45,45,46,46,47,47,48,48,49,49,50,50,52,52,53,53,54,54,56,56,58,58,59,59,60,60],"right_children":[2,4,6,8,10,12,14,16,18,20,22,24,26,28,30,32,34,36,38,40,42,44,46,48,50,52,54,56,58,60,-1,62,64,66,68,70,72,74,76,78,80,82,84,86,88,90,92,94,96,98,100,-1,102,104,106,-1,108,-1,110,112,114,-1,-1,-1,-1,-1,-1,-1,-1,-1,-1,-1,-1,-1,-1,-1,-1,-1,-1,-1,-1,-1,-1,-1,-1,-1,-1,-1,-1,-1,-1,-1,-1,-1,-1,-1,-1,-1,-1,-1,-1,-1,-1,-1,-1,-1,-1,-1,-1,-1,-1,-1,-1,-1,-1],"split_conditions":[8.1666664E1,1.4503835E1,1.2641585E1,2.0393293E1,1.4772832E1,1.1712167E1,1.08672905E1,8.049845E0,1.2953835E1,5.5E1,7.9E1,3.237852E2,8.7333336E1,1.6460335E1,1.19333336E2,9.191585E0,3.324566E2,1.2687416E1,3.355733E1,1.9133438E2,2.109305E1,7.851389E0,1.668742E1,2.5006987E2,3.3895557E2,1.6944142E2,1.2381167E1,1.3756168E1,1.7037416E1,1.3708391E1,3.8690753E0,5.2290835E0,3.3666668E1,8.0666664E1,9.3876505E0,2.9308508E1,2.0823734E2,6.2666668E1,2.1524605E2,1.5998356E1,4.9666668E1,5E-1,1.457492E1,1E-1,4.379589E1,1.5552002E1,1.7373497E1,-7.125833E-1,1.252E0,7.5353336E0,8.9E1,-6.642016E0,8.5333336E1,1.03666664E2,5E-1,5.26989E-1,1.06E2,2.4798744E0,2.0729086E1,3.0963682E1,1.624394E1,-3.5970578E-1,-2.0259683E0,-7.718033E-1,1.6436589E0,1.9029061E-1,-1.484045E0,1.458632E0,-5.319425E-1,2.2262368E-2,-1.8304184E-1,-1.2446966E0,3.4212876E-2,9.5664315E-2,-8.0135846E-1,2.1304004E0,5.5867916E-1,-6.7314494E-1,1.1404405E0,-1.275114E0,8.6413115E-1,-4.0664816E-1,-3.7179186E0,8.713643E-1,-4.6006623E-1,-3.8188842E-1,-2.4804034E0,-4.282123E-2,-1.6089382E0,-5.1529735E-1,-3.663917E0,7.563206E-1,-1.6745895E0,-1.6783437E0,4.0002495E-1,1.5651581E0,-1.8776993E0,1.0120926E-1,4.1331096E0,-1.588979E0,-1.3924943E-1,-1.7823205E0,-1.3337404E-1,-4.4771805E-1,2.6659927E0,-3.37562E0,5.610386E-1,-4.396588E0,-1.9569169E-1,-8.65567E-1,3.5977077E-1,-4.5545045E-1,2.4083786E0,-6.800218E-1,8.5718447E-1],"split_indices":[0,1,1,3,1,1,3,3,1,0,0,4,0,1,0,1,4,1,3,4,3,4,1,4,4,4,1,1,1,3,0,1,0,0,3,3,4,0,4,4,0,2,1,2,3,1,3,1,1,1,0,0,0,0,2,0,0,0,1,4,3,0,0,0,0,0,0,0,0,0,0,0,0,0,0,0,0,0,0,0,0,0,0,0,0,0,0,0,0,0,0,0,0,0,0,0,0,0,0,0,0,0,0,0,0,0,0,0,0,0,0,0,0,0,0],"split_type":[0,0,0,0,0,0,0,0,0,0,0,0,0,0,0,0,0,0,0,0,0,0,0,0,0,0,0,0,0,0,0,0,0,0,0,0,0,0,0,0,0,0,0,0,0,0,0,0,0,0,0,0,0,0,0,0,0,0,0,0,0,0,0,0,0,0,0,0,0,0,0,0,0,0,0,0,0,0,0,0,0,0,0,0,0,0,0,0,0,0,0,0,0,0,0,0,0,0,0,0,0,0,0,0,0,0,0,0,0,0,0,0,0,0,0],"sum_hessian":[4.089E3,3.687E3,4.02E2,2.483E3,1.204E3,2.86E2,1.16E2,1.097E3,1.386E3,4.6E1,1.158E3,2.7E2,1.6E1,1.4E1,1.02E2,2.3E1,1.074E3,1.231E3,1.55E2,2.3E1,2.3E1,1.146E3,1.2E1,2.61E2,9E0,6E0,1E1,6E0,8E0,9.8E1,4E0,1.8E1,5E0,1.001E3,7.3E1,1.191E3,4E1,1.26E2,2.9E1,1.1E1,1.2E1,1.7E1,6E0,1.1E1,1.135E3,5E0,7E0,2.24E2,3.7E1,7E0,2E0,3E0,3E0,5E0,5E0,1E0,5E0,2E0,6E0,1.9E1,7.9E1,9E0,9E0,1E0,4E0,9.94E2,7E0,7E0,6.6E1,6.94E2,4.97E2,2E1,2E1,1.02E2,2.4E1,1.2E1,1.7E1,1E0,1E1,1E1,2E0,8E0,9E0,2E0,4E0,7E0,4E0,1.129E3,6E0,2E0,3E0,5E0,2E0,7E0,2.17E2,6E0,3.1E1,2E0,5E0,1E0,1E0,2E0,1E0,3E0,2E0,4E0,1E0,4E0,1E0,3E0,3E0,2E0,1.7E1,2E1,5.9E1],"tree_param":{"num_deleted":"0","num_feature":"5","num_nodes":"115","size_leaf_vector":"1"}},{"base_weights":[5.2936203E-3,-9.650785E-3,3.3865862E0,-4.625408E-2,1.2619168E0,4.6886954E0,-4.6868577E0,-2.4410086E-2,-1.7892631E0,3.5943088E-1,2.6895208E0,9.9603045E-1,9.294118E0,-2.898495E0,7.894089E-1,-4.616737E-1,5.7924516E-2,-7.424037E-1,-6.359483E0,5.9615183E0,2.4610575E-2,-2.7683148E0,3.6241348E0,2.9168406E0,-1.337442E0,3.8405976E0,4.5855837E0,-2.5709593E0,-4.0512782E-1,9.9818325E-1,1.7413717E-2,-1.3446369E0,2.9947293E0,-8.009047E0,1.0255543E0,-9.480727E-1,3.016656E0,2.9923368E-1,-4.4441676E0,7.1650696E-1,-2.296074E0,9.5879567E-1,5.975E0,4.110013E0,6.961651E-1,2.1752863E0,1.1752701E0,-6.102038E-1,-1.2659174E0,-6.0222615E-2,-3.2103813E-1,1.923555E0,2.3566744E-1,-1.1217628E-2,2.4089034E-1,-1.844614E-1,-2.1087132E0,1.2484859E0,-4.2595828E-1,-1.1363064E0,-3.3850453E0,4.3638256E-1,-2.8131092E-1,-1.5124255E0,-3.9786246E-1,-3.0419427E-1,1.1457688E0,1.0569241E0,-6.845589E-1,2.3021986E0,7.401773E-1,2.2711946E-1,1.4276952E0,1.0197442E0,-4.0136337E-1,-1.1836167E-1,5.490158E-1],"categories":[],"categories_nodes":[],"categories_segments":[],"categories_sizes":[],"default_left":[0,0,0,0,0,0,0,0,0,0,0,0,0,0,0,0,0,0,0,0,0,0,0,0,0,0,0,0,0,0,0,0,0,0,0,0,0,0,0,0,0,0,0,0,0,0,0,0,0,0,0,0,0,0,0,0,0,0,0,0,0,0,0,0,0,0,0,0,0,0,0,0,0,0,0,0,0],"id":15,"left_children":[1,3,5,7,9,11,13,15,17,19,21,23,25,-1,-1,27,29,31,33,35,37,39,41,43,-1,45,-1,47,49,51,53,55,57,59,-1,-1,-1,61,63,65,-1,67,69,71,73,-1,75,-1,-1,-1,-1,-1,-1,-1,-1,-1,-1,-1,-1,-1,-1,-1,-1,-1,-1,-1,-1,-1,-1,-1,-1,-1,-1,-1,-1,-1,-1],"loss_changes":[2.0670615E2,1.8963028E2,2.1120035E2,1.5073047E2,1.4591003E2,2.628433E2,1.3464319E2,1.4086627E2,2.297132E2,1.3302745E2,2.344754E2,1.1776794E2,1.700058E2,0E0,0E0,7.290668E1,1.2541508E2,9.6302475E1,1.7254395E2,1.8115587E2,8.478147E1,1.2465379E2,2.3237363E2,1.8335945E1,0E0,3.692675E1,0E0,5.5818176E0,8.20146E1,1.5151022E2,1.3599117E2,1.4501624E2,3.681697E1,6.7842285E1,0E0,0E0,0E0,9.425715E1,7.628403E-1,3.071874E1,0E0,1.6592865E2,1.0025897E2,7.2769623E0,2.6539568E1,0E0,4.8335614E0,0E0,0E0,0E0,0E0,0E0,0E0,0E0,0E0,0E0,0E0,0E0,0E0,0E0,0E0,0E0,0E0,0E0,0E0,0E0,0E0,0E0,0E0,0E0,0E0,0E0,0E0,0E0,0E0,0E0,0E0],"parents":[2147483647,0,0,1,1,2,2,3,3,4,4,5,5,6,6,7,7,8,8,9,9,10,10,11,11,12,12,15,15,16,16,17,17,18,18,19,19,20,20,21,21,22,22,23,23,25,25,27,27,28,28,29,29,30,30,31,31,32,32,33,33,37,37,38,38,39,39,41,41,42,42,43,43,44,44,46,46],"right_children":[2,4,6,8,10,12,14,16,18,20,22,24,26,-1,-1,28,30,32,34,36,38,40,42,44,-1,46,-1,48,50,52,54,56,58,60,-1,-1,-1,62,64,66,-1,68,70,72,74,-1,76,-1,-1,-1,-1,-1,-1,-1,-1,-1,-1,-1,-1,-1,-1,-1,-1,-1,-1,-1,-1,-1,-1,-1,-1,-1,-1,-1,-1,-1,-1],"split_conditions":[1.3433333E2,2.0974669E1,8.847584E0,2.0291586E1,6.5333336E1,1.6029576E2,9.399916E0,3.9333332E1,6.8333336E1,4.208909E1,6.9500465E1,1.3147722E2,1.2096214E1,-2.898495E0,7.894089E-1,2.3333334E1,1.6455001E0,6.3E1,9.3666664E1,5.6E1,2.5600533E1,7.5333336E1,1.5876775E1,1.6981165E1,-1.337442E0,-3.0424997E-1,4.5855837E0,2.6318497E2,3.4E0,9.495825E0,7.9999995E0,6E1,2E-1,1.3450708E1,1.0255543E0,-9.480727E-1,3.016656E0,5.1666668E1,2.2318666E1,7.4333336E1,-2.296074E0,2.3272837E1,2.196663E2,7.4672885E0,1.8624167E0,2.1752863E0,9.6480665E0,-6.102038E-1,-1.2659174E0,-6.0222615E-2,-3.2103813E-1,1.923555E0,2.3566744E-1,-1.1217628E-2,2.4089034E-1,-1.844614E-1,-2.1087132E0,1.2484859E0,-4.2595828E-1,-1.1363064E0,-3.3850453E0,4.3638256E-1,-2.8131092E-1,-1.5124255E0,-3.9786246E-1,-3.0419427E-1,1.1457688E0,1.0569241E0,-6.845589E-1,2.3021986E0,7.401773E-1,2.2711946E-1,1.4276952E0,1.0197442E0,-4.0136337E-1,-1.1836167E-1,5.490158E-1],"split_indices":[0,1,1,1,0,4,1,0,0,4,4,4,3,0,0,0,1,0,0,0,3,0,3,3,0,1,0,4,2,4,2,0,2,3,0,0,0,0,1,0,0,1,4,3,1,0,3,0,0,0,0,0,0,0,0,0,0,0,0,0,0,0,0,0,0,0,0,0,0,0,0,0,0,0,0,0,0],"split_type":[0,0,0,0,0,0,0,0,0,0,0,0,0,0,0,0,0,0,0,0,0,0,0,0,0,0,0,0,0,0,0,0,0,0,0,0,0,0,0,0,0,0,0,0,0,0,0,0,0,0,0,0,0,0,0,0,0,0,0,0,0,0,0,0,0,0,0,0,0,0,0,0,0,0,0,0,0],"sum_hessian":[4.089E3,4.072E3,1.7E1,3.959E3,1.13E2,1.5E1,2E0,3.911E3,4.8E1,7E1,4.3E1,9E0,6E0,1E0,1E0,6.19E2,3.292E3,4E1,8E0,3E0,6.7E1,6E0,3.7E1,7E0,2E0,4E0,2E0,1.5E1,6.04E2,1.35E2,3.157E3,3.5E1,5E0,7E0,1E0,1E0,2E0,6.4E1,3E0,4E0,2E0,1.8E1,1.9E1,4E0,3E0,1E0,3E0,1.3E1,2E0,4.63E2,1.41E2,4E0,1.31E2,2.952E3,2.05E2,3.2E1,3E0,4E0,1E0,4E0,3E0,3.3E1,3.1E1,2E0,1E0,3E0,1E0,1E1,8E0,1.2E1,7E0,1E0,3E0,1E0,2E0,1E0,2E0],"tree_param":{"num_deleted":"0","num_feature":"5","num_nodes":"77","size_leaf_vector":"1"}},{"base_weights":[4.550865E-3,-7.384276E-3,2.704955E0,6.27436E-1,-5.1726397E-2,3.7900429E0,-3.9838307E0,1.5003669E0,-1.3848183E0,-7.3332064E-2,1.6787466E0,7.907974E-1,7.5332446E0,-2.4637208E0,6.709969E-1,1.1324476E0,6.3094134E0,-2.180126E0,2.2598765E0,-6.9423564E-2,-2.2159796E0,4.0857217E-1,3.896197E0,2.3259392E0,-1.0699539E0,3.209607E0,3.6684678E0,1.2599429E0,-3.138636E0,9.675583E0,-1.0115738E0,-5.0123897E0,-3.74912E-1,6.3269486E0,-4.0635452E-1,-5.5646233E-2,-2.126082E0,-3.918611E0,1.1947701E0,4.6464996E0,-1.1540476E0,3.2079742E0,6.4191055E-1,1.8489922E0,9.303551E-1,2.5554243E-1,1.1274863E0,3.237635E0,1.114975E-1,-1.3575325E0,2.9942608E-1,-6.3126487E-1,-2.8365138E0,-1.3678446E0,1.7768185E-1,2.0607564E0,5.42363E-1,8.3867687E-1,-3.2182413E-1,1.2426989E-2,-9.4171524E-2,-3.5819845E0,4.8043564E-1,4.529503E-1,-1.6959544E0,1.4213122E0,1.6634956E-1,1.5401611E0,-3.265034E-1,-5.56374E-1,3.705254E-2,1.930504E-1,1.1064652E0,-6.204552E-1,6.70401E-1,-1.00607306E-1,4.3921357E-1],"categories":[],"categories_nodes":[],"categories_segments":[],"categories_sizes":[],"default_left":[0,0,0,0,0,0,0,0,0,0,0,0,0,0,0,0,0,0,0,0,0,0,0,0,0,0,0,0,0,0,0,0,0,0,0,0,0,0,0,0,0,0,0,0,0,0,0,0,0,0,0,0,0,0,0,0,0,0,0,0,0,0,0,0,0,0,0,0,0,0,0,0,0,0,0,0,0],"id":16,"left_children":[1,3,5,7,9,11,13,15,17,19,21,23,25,-1,-1,27,29,31,33,35,-1,37,39,41,-1,43,-1,45,-1,47,49,51,53,55,57,59,61,63,65,67,69,71,73,-1,75,-1,-1,-1,-1,-1,-1,-1,-1,-1,-1,-1,-1,-1,-1,-1,-1,-1,-1,-1,-1,-1,-1,-1,-1,-1,-1,-1,-1,-1,-1,-1,-1],"loss_changes":[1.3183948E2,1.14684456E2,1.4574142E2,4.6932245E2,1.4249666E2,1.7367125E2,9.727965E1,3.2195245E2,2.3971773E2,1.0701981E2,1.3078592E2,7.518638E1,1.0284793E2,0E0,0E0,2.7039767E2,3.301554E2,3.406812E2,1.6522731E2,1.0645061E2,0E0,1.1014455E2,6.97789E1,9.823746E0,0E0,2.7927067E1,0E0,1.7320007E2,0E0,8.94823E1,3.9821514E1,3.160249E2,1.7268506E2,2.2838593E0,2.433648E1,9.369609E1,9.336592E2,5.5615448E1,5.8620884E1,4.751233E1,2.913964E0,3.7844772E0,2.1887821E1,0E0,3.1929722E0,0E0,0E0,0E0,0E0,0E0,0E0,0E0,0E0,0E0,0E0,0E0,0E0,0E0,0E0,0E0,0E0,0E0,0E0,0E0,0E0,0E0,0E0,0E0,0E0,0E0,0E0,0E0,0E0,0E0,0E0,0E0,0E0],"parents":[2147483647,0,0,1,1,2,2,3,3,4,4,5,5,6,6,7,7,8,8,9,9,10,10,11,11,12,12,15,15,16,16,17,17,18,18,19,19,21,21,22,22,23,23,25,25,27,27,29,29,30,30,31,31,32,32,33,33,34,34,35,35,36,36,37,37,38,38,39,39,40,40,41,41,42,42,44,44],"right_children":[2,4,6,8,10,12,14,16,18,20,22,24,26,-1,-1,28,30,32,34,36,-1,38,40,42,-1,44,-1,46,-1,48,50,52,54,56,58,60,62,64,66,68,70,72,74,-1,76,-1,-1,-1,-1,-1,-1,-1,-1,-1,-1,-1,-1,-1,-1,-1,-1,-1,-1,-1,-1,-1,-1,-1,-1,-1,-1,-1,-1,-1,-1,-1,-1],"split_conditions":[1.3433333E2,1.0805998E1,8.847584E0,1E-1,2.2901999E1,1.6029576E2,9.399916E0,1.06E2,1.6795748E1,5.16E1,7.3666664E1,1.3147722E2,1.2096214E1,-2.4637208E0,6.709969E-1,1.03666664E2,1.3865567E2,5E-1,1.7510332E1,1.19333336E2,-2.2159796E0,1.457889E1,9.3666664E1,1.6981165E1,-1.0699539E0,-3.0424997E-1,3.6684678E0,3.185675E2,-3.138636E0,1.26E2,7.4672885E0,6.9333336E1,4.6478333E0,1.739575E1,2E-1,2.2E0,1.4277983E1,1.2425216E1,1.5807239E1,6.1E0,1E2,7.4672885E0,1.80036E1,1.8489922E0,9.6480665E0,2.5554243E-1,1.1274863E0,3.237635E0,1.114975E-1,-1.3575325E0,2.9942608E-1,-6.3126487E-1,-2.8365138E0,-1.3678446E0,1.7768185E-1,2.0607564E0,5.42363E-1,8.3867687E-1,-3.2182413E-1,1.2426989E-2,-9.4171524E-2,-3.5819845E0,4.8043564E-1,4.529503E-1,-1.6959544E0,1.4213122E0,1.6634956E-1,1.5401611E0,-3.265034E-1,-5.56374E-1,3.705254E-2,1.930504E-1,1.1064652E0,-6.204552E-1,6.70401E-1,-1.00607306E-1,4.3921357E-1],"split_indices":[0,3,1,2,1,4,1,0,1,2,0,4,3,0,0,0,4,2,1,0,0,3,0,3,0,1,0,4,0,0,3,0,1,1,2,2,3,3,3,2,0,3,3,0,3,0,0,0,0,0,0,0,0,0,0,0,0,0,0,0,0,0,0,0,0,0,0,0,0,0,0,0,0,0,0,0,0],"split_type":[0,0,0,0,0,0,0,0,0,0,0,0,0,0,0,0,0,0,0,0,0,0,0,0,0,0,0,0,0,0,0,0,0,0,0,0,0,0,0,0,0,0,0,0,0,0,0,0,0,0,0,0,0,0,0,0,0,0,0,0,0,0,0,0,0,0,0,0,0,0,0,0,0,0,0,0,0],"sum_hessian":[4.089E3,4.072E3,1.7E1,2.65E2,3.807E3,1.5E1,2E0,1.85E2,8E1,3.761E3,4.6E1,9E0,6E0,1E0,1E0,1.73E2,1.2E1,6.6E1,1.4E1,3.76E3,1E0,3E1,1.6E1,7E0,2E0,4E0,2E0,1.72E2,1E0,8E0,4E0,2.5E1,4.1E1,5E0,9E0,3.736E3,2.4E1,4E0,2.6E1,1.4E1,2E0,4E0,3E0,1E0,3E0,1.49E2,2.3E1,7E0,1E0,1E0,3E0,1.6E1,9E0,7E0,3.4E1,4E0,1E0,1E0,8E0,2.716E3,1.02E3,6E0,1.8E1,1E0,3E0,3E0,2.3E1,1.3E1,1E0,1E0,1E0,1E0,3E0,1E0,2E0,1E0,2E0],"tree_param":{"num_deleted":"0","num_feature":"5","num_nodes":"77","size_leaf_vector":"1"}},{"base_weights":[2.9353905E-3,-1.8545488E-1,1.3328029E-1,9.575366E-1,-2.2783037E-1,-3.773299E-1,2.3076108E-1,-5.3720504E-1,3.7590663E0,-1.5669494E0,-1.6155298E-1,-1.4224608E0,9.7126424E-1,2.5133276E0,1.883121E-1,-4.2327895E0,-9.00703E-3,1.5502521E0,7.9552307E0,-6.633936E-1,-4.242701E0,5.565371E-1,-2.735659E-1,1.2678782E0,-2.4929633E0,1.2022728E0,-2.0677414E0,1.1319188E-1,8.982374E0,-6.8928957E0,2.1671318E-1,-6.0056306E-2,-1.557268E0,-4.626458E-1,1.1207294E0,3.6597867E0,-1.3834714E0,2.917425E0,7.0628667E-1,-1.3969616E0,6.004886E-1,-5.2277784E0,7.5828457E-1,-8.8883184E-2,2.1880033E0,-5.407753E0,-2.5790727E-1,3.8023217E0,5.328765E-1,2.5015256E0,-2.9235523E0,-3.2942085E0,1.6380948E0,-2.6988795E0,3.5654957E0,1.4908263E1,-3.633524E0,2.1601894E0,-1.0270622E1,3.7625092E-1,-2.704645E-1,-2.7885604E-1,5.3796256E-1,1.3478966E-1,1.353865E0,2.0404357E-2,-1.0024372E0,-2.1350719E-1,-1.6921074E0,4.515483E-1,-8.3292896E-1,-8.1449705E-1,-2.6889787E0,-1.4515801E-1,6.727078E-1,2.6621208E-1,-8.67064E-1,-7.695864E-2,1.4177026E0,-2.3316393E0,-6.08675E-1,-3.6036167E-2,-2.3210591E-1,-7.486451E-2,1.6344074E0,-1.2243481E0,4.5267335E-1,1.8494328E0,-4.5572567E-1,-4.645228E-1,-1.3504063E0,-1.452948E0,1.3547951E0,3.3968347E-1,1.9629372E0,1.5032495E0,-1.247455E0,1.6898229E0,-7.48199E-1,5.8525796E0,6.8148506E-1,1.0927254E0,-2.1818933E0,1.731205E-1,7.9896474E-1,-3.745043E0,-1.1689827E0,7.496118E-2,1.1871252E0,6.882812E-1,-1.797779E-1],"categories":[],"categories_nodes":[],"categories_segments":[],"categories_sizes":[],"default_left":[0,0,0,0,0,0,0,0,0,0,0,0,0,0,0,0,0,0,0,0,0,0,0,0,0,0,0,0,0,0,0,0,0,0,0,0,0,0,0,0,0,0,0,0,0,0,0,0,0,0,0,0,0,0,0,0,0,0,0,0,0,0,0,0,0,0,0,0,0,0,0,0,0,0,0,0,0,0,0,0,0,0,0,0,0,0,0,0,0,0,0,0,0,0,0,0,0,0,0,0,0,0,0,0,0,0,0,0,0,0,0],"id":17,"left_children":[1,3,5,7,9,11,13,15,17,19,21,23,25,27,29,31,33,35,37,39,41,43,45,47,49,51,-1,53,55,57,59,-1,-1,61,-1,63,65,-1,-1,67,69,71,73,75,77,79,81,83,85,87,89,91,93,95,97,99,101,103,105,107,109,-1,-1,-1,-1,-1,-1,-1,-1,-1,-1,-1,-1,-1,-1,-1,-1,-1,-1,-1,-1,-1,-1,-1,-1,-1,-1,-1,-1,-1,-1,-1,-1,-1,-1,-1,-1,-1,-1,-1,-1,-1,-1,-1,-1,-1,-1,-1,-1,-1,-1],"loss_changes":[1.0045757E2,8.12496E1,1.2044226E2,2.532732E2,1.4299466E2,5.482511E2,1.9631561E2,7.8041885E1,1.8230688E2,1.8092993E2,1.2394223E2,6.33884E2,3.1710687E2,5.734671E2,4.0271616E2,1.8279099E1,6.2884182E1,9.789509E1,4.6481995E1,5.461319E1,9.756497E1,2.192146E2,1.0569054E2,1.153315E2,3.449532E2,3.307007E2,0E0,2.8145035E2,8.017735E2,2.668173E2,1.5461554E2,0E0,0E0,3.6422432E1,0E0,2.2622078E1,2.0121191E1,0E0,0E0,1.0357724E2,7.138907E1,1.2584845E2,8.458729E0,4.1278726E2,3.6721408E2,1.6186378E1,9.435577E1,9.4713974E1,2.3133109E2,2.0083537E2,3.076371E2,2.0333574E2,3.6971014E2,2.0084888E2,1.7689215E2,3.6261365E2,1.3241301E2,8.5219765E-1,3.598529E1,6.769264E2,4.1542166E2,0E0,0E0,0E0,0E0,0E0,0E0,0E0,0E0,0E0,0E0,0E0,0E0,0E0,0E0,0E0,0E0,0E0,0E0,0E0,0E0,0E0,0E0,0E0,0E0,0E0,0E0,0E0,0E0,0E0,0E0,0E0,0E0,0E0,0E0,0E0,0E0,0E0,0E0,0E0,0E0,0E0,0E0,0E0,0E0,0E0,0E0,0E0,0E0,0E0,0E0],"parents":[2147483647,0,0,1,1,2,2,3,3,4,4,5,5,6,6,7,7,8,8,9,9,10,10,11,11,12,12,13,13,14,14,15,15,16,16,17,17,18,18,19,19,20,20,21,21,22,22,23,23,24,24,25,25,27,27,28,28,29,29,30,30,33,33,35,35,36,36,39,39,40,40,41,41,42,42,43,43,44,44,45,45,46,46,47,47,48,48,49,49,50,50,51,51,52,52,53,53,54,54,55,55,56,56,57,57,58,58,59,59,60,60],"right_children":[2,4,6,8,10,12,14,16,18,20,22,24,26,28,30,32,34,36,38,40,42,44,46,48,50,52,-1,54,56,58,60,-1,-1,62,-1,64,66,-1,-1,68,70,72,74,76,78,80,82,84,86,88,90,92,94,96,98,100,102,104,106,108,110,-1,-1,-1,-1,-1,-1,-1,-1,-1,-1,-1,-1,-1,-1,-1,-1,-1,-1,-1,-1,-1,-1,-1,-1,-1,-1,-1,-1,-1,-1,-1,-1,-1,-1,-1,-1,-1,-1,-1,-1,-1,-1,-1,-1,-1,-1,-1,-1,-1,-1],"split_conditions":[5.1333332E1,2.1465048E1,6.520159E1,4.5666668E1,4.7690323E1,2E-1,6.9500465E1,2.7519999E0,5E-1,4.6E1,1.3865567E2,1.3797912E1,3.456E1,7.4E1,7.0798294E1,2.9E1,1.9521421E1,8.62075E0,1.9000001E0,2.242427E1,1.5702E1,2.153089E1,7.4672885E0,4.5499167E0,7.851389E0,1.139842E1,-2.0677414E0,9.993667E0,9.3666664E1,6.4333336E1,2.1999998E0,-6.0056306E-2,-1.557268E0,1.7647833E1,1.1207294E0,1.2979984E1,1.436463E1,2.917425E0,7.0628667E-1,4.469031E1,4.2333332E1,1.1712167E1,4.8E1,1.835647E1,1E-1,4.4561667E0,1.6560335E1,2.2693895E1,6.2145E0,6.9333336E1,6.6E1,7.0999994E0,9.7666664E1,1.1298495E1,6.81985E1,5E-1,1.2324414E1,6.2E1,7.9E1,1.8E0,1.4257288E2,-2.7885604E-1,5.3796256E-1,1.3478966E-1,1.353865E0,2.0404357E-2,-1.0024372E0,-2.1350719E-1,-1.6921074E0,4.515483E-1,-8.3292896E-1,-8.1449705E-1,-2.6889787E0,-1.4515801E-1,6.727078E-1,2.6621208E-1,-8.67064E-1,-7.695864E-2,1.4177026E0,-2.3316393E0,-6.08675E-1,-3.6036167E-2,-2.3210591E-1,-7.486451E-2,1.6344074E0,-1.2243481E0,4.5267335E-1,1.8494328E0,-4.5572567E-1,-4.645228E-1,-1.3504063E0,-1.452948E0,1.3547951E0,3.3968347E-1,1.9629372E0,1.5032495E0,-1.247455E0,1.6898229E0,-7.48199E-1,5.8525796E0,6.8148506E-1,1.0927254E0,-2.1818933E0,1.731205E-1,7.9896474E-1,-3.745043E0,-1.1689827E0,7.496118E-2,1.1871252E0,6.882812E-1,-1.797779E-1],"split_indices":[0,4,4,0,4,2,4,1,2,0,4,3,3,0,4,0,4,1,2,3,1,3,3,1,4,3,0,1,0,0,2,0,0,1,0,3,4,0,0,4,0,1,0,3,2,1,1,4,1,0,0,2,0,3,4,2,3,0,0,2,4,0,0,0,0,0,0,0,0,0,0,0,0,0,0,0,0,0,0,0,0,0,0,0,0,0,0,0,0,0,0,0,0,0,0,0,0,0,0,0,0,0,0,0,0,0,0,0,0,0,0],"split_type":[0,0,0,0,0,0,0,0,0,0,0,0,0,0,0,0,0,0,0,0,0,0,0,0,0,0,0,0,0,0,0,0,0,0,0,0,0,0,0,0,0,0,0,0,0,0,0,0,0,0,0,0,0,0,0,0,0,0,0,0,0,0,0,0,0,0,0,0,0,0,0,0,0,0,0,0,0,0,0,0,0,0,0,0,0,0,0,0,0,0,0,0,0,0,0,0,0,0,0,0,0,0,0,0,0,0,0,0,0,0,0],"sum_hessian":[4.089E3,1.672E3,2.417E3,5.9E1,1.613E3,3.87E2,2.03E3,3.9E1,2E1,7.5E1,1.538E3,2.18E2,1.69E2,3.6E1,1.994E3,4E0,3.5E1,1.4E1,6E0,5.7E1,1.8E1,2.07E2,1.331E3,6.2E1,1.56E2,1.65E2,4E0,2.7E1,9E0,7E0,1.987E3,1E0,3E0,3.2E1,3E0,8E0,6E0,4E0,2E0,3.6E1,2.1E1,1.5E1,3E0,1.49E2,5.8E1,3E0,1.328E3,1.3E1,4.9E1,1.2E1,1.44E2,1.4E1,1.51E2,1.5E1,1.2E1,6E0,3E0,2E0,5E0,1.497E3,4.9E2,2.7E1,5E0,2E0,6E0,4E0,2E0,3.2E1,4E0,1.7E1,4E0,1E1,5E0,2E0,1E0,1.11E2,3.8E1,3E1,2.8E1,1E0,2E0,1.049E3,2.79E2,4E0,9E0,8E0,4.1E1,6E0,6E0,7.8E1,6.6E1,1.2E1,2E0,1.38E2,1.3E1,2E0,1.3E1,9E0,3E0,4E0,2E0,1E0,2E0,1E0,1E0,3E0,2E0,1.447E3,5E1,5.5E1,4.35E2],"tree_param":{"num_deleted":"0","num_feature":"5","num_nodes":"111","size_leaf_vector":"1"}},{"base_weights":[2.3329495E-3,-7.953534E-3,2.329806E0,-4.915842E-3,-1.8566157E0,3.2494035E0,-3.3513157E0,2.166881E0,-1.3479764E-2,8.5467833E-1,6.2062387E0,-2.0671957E0,5.591034E-1,3.266585E0,-1.1062096E0,-2.5513484E0,-2.7999203E-3,4.0278373E0,-4.42091E-1,8.00963E0,3.3955234E-1,-2.1618295E0,4.9435916E0,-5.6481223E0,8.2890826E-1,7.146561E-2,-2.946057E-1,2.5212938E-1,1.5603974E0,-1.042059E0,4.8719025E-1,3.531863E0,2.9452562E0,-1.13848306E-1,-1.1263252E0,2.0399003E0,1.0192815E0,-1.6242751E-1,-2.1089497E0,6.068768E-1,-1.3084809E0,1.5866827E-2,1.0711539E0,-2.1311074E-1,2.691481E-2,3.9014456E-1,-1.3436967E-1,1.3485192E0,2.4081917E-1],"categories":[],"categories_nodes":[],"categories_segments":[],"categories_sizes":[],"default_left":[0,0,0,0,0,0,0,0,0,0,0,0,0,0,0,0,0,0,0,0,0,0,0,0,0,0,0,0,0,0,0,0,0,0,0,0,0,0,0,0,0,0,0,0,0,0,0,0,0],"id":18,"left_children":[1,3,5,7,-1,9,11,13,15,17,19,-1,-1,21,-1,23,25,27,29,31,-1,33,35,37,39,41,43,-1,-1,-1,45,47,-1,-1,-1,-1,-1,-1,-1,-1,-1,-1,-1,-1,-1,-1,-1,-1,-1],"loss_changes":[9.793932E1,7.644123E1,1.0492799E2,7.576474E1,0E0,1.0798857E2,6.82148E1,1.150521E2,1.0995395E2,4.292922E1,5.499225E1,0E0,0E0,1.3813605E2,0E0,1.826359E2,8.759402E1,6.8497887E0,2.4228745E1,5.802429E0,0E0,9.929321E0,8.461548E0,5.969763E1,6.460108E1,2.0923781E2,1.3108899E2,0E0,0E0,0E0,5.905985E0,4.2777824E0,0E0,0E0,0E0,0E0,0E0,0E0,0E0,0E0,0E0,0E0,0E0,0E0,0E0,0E0,0E0,0E0,0E0],"parents":[2147483647,0,0,1,1,2,2,3,3,5,5,6,6,